417.65741230533604,-427.32275180515353,452.94157230484416,-539.7785001913144,325.9762408910319,-368.947110748908,135.00831335901512,2.283104520105667,-336.7166082906824,388.88452065003366,-166.67278247275954,37.95276716708122,-17.793903257403144,7.492723156669172,-19.21815443245123,13.091949448656123,0.0005188445346829829,0.5413202033683149,-4.224548982208773,4.767671508833928,-2.040800667184641,-3.084630265555461,1.7308837251727027,1.3025684190520224,-0.04345631927060367,-0.4515271348288792,3.4285519364584616,-0.2756180392696024,9.583702639576131,-2.3183056287875843,1.5052796122228074,-0.06194918117548198,-2.703652678284101,-0.29435763670312554,-0.867203527892201,-0.26380395138544976,0.010582323280701189,0.023899199785049063,0.11628848306841633,1.6738540469059586,2.6819470032382213,0.23516575067469603,-1.789919314329822,4.437887066923878,-0.4604656006429977,-0.7384178352746531,1.685459324957904,-9.761547494080787,-0.6359742899089298,-10.502053301790966,2.2699819362771905,35.29818869835799,7.588463062104438,9.14053469085843,-17.71670251788464,-45.85693555476337,33.641890410726546,0.09087536500145266,28.0524915752967,-13.072973119514927,-8.002338264358912,2.924405545125694,1.1923058602057495,1.9007552344449437,1.146405277278717,-5.769265481115326,-0.30674076422045005,0.9281183784860048,-1.6003394000038895,5.118290125248336,-2.7056029180594123,-1.9132585929564812,1.4043320954844773,1.1834188465979878,0.0733661372713641,-0.5884609548240007,3.3367377192744243,-0.6845882901636173,-3.1907047876118213,-0.24259498795780132,0.4570104423332211,-0.3536323093126157,-1.2249121594668964,-0.032441435661931806,-0.971238844614561,-1.3494531228279811,0.056356060334842084,-0.014811661291931344,-0.45912935640899377,1.084997491831217,6.233215220602233,0.8349080433355027,-0.32635335429973544,0.580773545847677,4.432541245418406,-5.873777443187976,0.46174852245971465,-13.436757916555052,-0.16827837276032653,-8.349239416676255
387.78178511114675,-471.5046501462348,441.23806961304217,-475.2371377563104,489.44387248261773,-371.6080524678546,55.54384098168521,21.823640997714392,-397.1656836974289,412.16620144387707,-74.41516127263594,1.5326116654371162,-21.030324163123623,16.25169218168878,-30.693064013676803,14.493431956443828,-4.367946392483191,15.535709036850221,-6.352641618978623,-2.3240069472174696,0.788407133795701,3.9700373922800054,-0.15380634808138893,-1.174966060757498,4.286772216477743,-0.67752011771681,3.3212264405971155,-4.012425808300009,1.3676387561706633,-4.037911938689831,1.1729395020969164,1.4679370122948399,-0.6385737895180839,0.19125838216305624,-0.0038084294870982527,-0.18894499612225601,-0.7257612120814088,-0.6645787754298738,3.1486468475030733,-0.9217361293337945,2.1505285463681503,-0.7872360347895508,0.13869737561886097,4.414406851143042,0.016326241413771925,0.5137326835613294,0.5799249843633589,0.37746709633651676,1.7185601902394865,-4.081972500743092,29.525643290398875,67.47529724696506,-27.864379129664485,2.0618384304725623,-101.45562297557626,77.36927705736889,-0.10828386210318719,1.4117161357684154,74.10234957953071,-23.906464672943457,23.926420173851284,4.577308911870659,6.461095116039246,-1.7306509699626105,9.634689066170097,-0.2948650810335316,1.5397887409516926,-3.2896412908721118,-1.6442628658829221,-0.1414097224945543,2.2036100765300404,-0.6598929319265494,0.44258379130155845,0.3265489798131611,1.2291726393047497,-2.5748018850881635,6.409082271122827,-7.04759850571412,1.8079945015138037,-3.543980340467442,2.0711314912168888,0.24460759744206584,0.06668026700000418,0.3438815276983824,0.1483257746335127,-1.4488489981907264,0.2175927999919054,0.32280029745713534,-0.2931764464389168,0.5617686435626723,6.717033907896621,0.3446376136152942,1.7757131352929036,-3.2395338714724176,-0.2799831984202683,2.48028639236054,0.3617562008984052,0.3221636097859033,-0.12429128605050188,8.89715280931398
301.1539163895941,-467.3901785498347,494.31378916092217,-501.29485203977674,455.04840595251153,-371.79834687695984,1.6390030652889607,56.3505413556868,-404.19383563254814,92.9297043837505,-210.45608533948325,123.72995316163724,-1.6758489903396168,1.3780097391939847,-8.725621595958046,32.90808809374903,-0.01754377018382769,7.25610831737913,0.1655520454312125,1.7812334417396158,-0.01736334666045991,2.515784129061558,-4.7429273378239145,-1.110480459978362,-0.3345223955853953,-0.09987337302504784,-0.06043131476394592,-6.797258191979836,0.2862900100932393,-5.168535764943783,3.2587557871883064,0.49206221235351677,-3.0198336929202583,-1.1776994965115506,-0.7381416127816465,0.4392644498535816,0.07552070702558922,-0.15874924890732345,-0.8312365116573801,-0.7314049181710516,2.9004857143524987,1.3774730050681256,-0.7170447966871052,0.35241319370788915,0.10657981834464891,-0.017177049956416113,3.1155962533345587,-1.1793426404435081,2.9301586665866353,-9.417759973713146,38.13922704622746,11.515142699736998,-46.12884270053473,15.11587344446798,11.550839719365399,13.776894299633796,-2.4819647836154672,8.645505435873702,26.451519316372924,6.478763660179027,8.870791243216445,9.982270467896683,-1.351366374348082,-0.20088346085562137,-6.706200740245777,14.337686231742737,-0.05268154269631964,1.4539591507509044,0.07355822294977798,0.7826639483310416,-0.033705497482799274,0.38431429891176094,3.3397336420955526,-0.8238419285177088,0.31925269616255036,0.05999655459504538,-0.07963783706736649,-3.9709306244774325,3.039517085231523,-4.104817314312669,6.858872276443549,-0.47973123020881303,-0.12902887780749772,0.9264761195228033,1.3510236181967912,1.0832175543579012,0.15679613030670225,0.3820731277538414,-2.3354165204618766,-2.9120389060188927,-6.530681387137065,5.156441864876115,-0.6247286977668409,1.0232476537083812,-0.3812665105066344,-0.03213604109390644,6.316029070362333,-2.879115380418,3.0357184295723982,-3.7545516224228095
313.56514403897563,-483.4224416828001,524.8855696588143,-391.83392549311975,426.7840042210373,-259.4985730503686,59.6942030806531,34.67568765453848,-337.8924052092625,188.04431973553073,-169.1690085241753,3.2909820242088017,0.464006694893051,45.233996710265274,-31.817668304078552,22.790517984492453,-7.311107487264621,1.8744274906159717,-3.1239099741771668,1.9544773721807474,-10.264628311595743,5.5794734593647775,-1.9468371153516841,3.1508873058524216,-1.6016168556437265,1.7930519626349906,-1.7136945692307535,-8.632269852182048,13.092168003367988,1.4797523770765793,-3.0534890213798462,-2.9250731931824703,-1.56472103293072,0.35349405466490325,-0.0077078572629807884,-1.5521527603087577,-0.2102431286056916,-0.4143024405986324,4.001628918772099,1.5564423546033694,5.895315051325838,1.5018837899626192,-6.0253615003247205,-0.1432676322237949,0.3807830023631027,-1.5128259845505454,-0.466628551043236,-6.378504298119651,0.22325085336660777,-27.283281153360804,21.067936962392082,-43.77511811025761,-35.00518533887953,14.904166852300705,-48.86242719798338,-23.927417220435018,21.303932639136747,-5.927839769982654,-52.14323210268958,11.329670311857399,1.2283483438578742,2.043928320129538,0.2836402259417454,-4.800057687757658,2.868446428906836,-0.2927732390121207,-0.9182682869353016,1.2206626309769035,-1.5641503036498676,1.7154594002556678,-9.201489370731224,3.6665860812020696,0.5986702029239908,-0.05551705242305616,-0.5554802424961025,-1.2430902897006604,2.600474998811592,-18.93560365460644,22.031933007165208,-4.890405836679292,4.0473708179298455,-9.254176441620075,8.312334993398963,1.0398683949339897,1.4555303639544945,-8.441448503633069,7.716297424883578,-13.580341988660393,10.911624983285947,-7.651898052880654,14.359179325168043,-5.705972314038377,5.183381780943932,-11.480464535805368,9.211793291296772,-10.697026406689929,2.0474800657571706,-2.7018509712240757,-0.5502715843157091,-15.915487238521223
