412.45082849051323,-427.36134261919506,453.6092391520797,-536.8272348391693,333.92494426958,-378.0648090939394,138.10755870495086,3.2104721530226925,-365.93872626227676,400.82224232154476,-163.71070053307812,36.9400710147911,-16.78987427027039,5.975226961588476,-17.319049030858082,12.080854446143803,0.07720141232375966,0.6524587188030893,-4.04638834950822,4.682859103504825,-2.198893861639405,-4.040476553968375,2.813501529290363,0.2781681465648944,0.1258599258735842,-1.095406919684521,4.640494882227358,-0.6755413395986665,9.624169382924492,-1.9891412427714101,1.186459080025358,-0.27327686368460036,-2.5589012793875554,0.056369496730752644,-0.34090013128752616,-0.12423680245026603,-0.00602904809956506,-0.11677443745801597,0.3137905243729904,1.288586301757789,2.4308264847641112,0.1740768545160094,-1.4720409784596598,4.320342437437148,-0.619910946911034,-0.5267809402180745,1.3660704133729098,-10.12984274893006,-0.4084323762445763,-10.755832770744178,1.2763526186519414,37.358685271876766,7.617513603889165,7.650142711955368,-19.641514773432164,-46.717348134769054,35.5519097767592,-0.10402614832319301,35.253347295983986,-18.890488258342202,-6.115764232617039,2.5635445389373785,1.5430233222929814,1.4447535211569118,1.5068902038834153,-5.72373212800278,-0.44675155566295643,1.1965092556422974,-1.4888216546408444,5.087144571577028,-2.9884897341214867,-2.577372379494136,2.2871863537240245,0.25317585651748686,-0.16886294615889597,-1.4083401235747885,4.441869768172182,-1.6393492545640242,-2.7828647044410104,-0.19618563274962142,0.37427587872713985,-1.4620873116045914,-0.9245135337687316,0.0038666472369897065,-0.3707991063777172,-1.1479053030467128,0.001655461204419506,0.02926339361789765,-0.8270885105187631,0.7825446850912527,6.34826154700562,0.4862439154845788,-0.2615697067577383,0.46135054381138474,3.913990795768541,-5.314570522228337,0.3160351979775591,-14.03068700069889,-0.11491296725824185,-8.798177365967092
385.69436797751405,-469.96698814658885,440.4154892100996,-473.1452796106896,493.4715867266932,-383.28643838599237,60.48731810447862,21.8216481741822,-410.1776011834954,417.2827213601049,-74.47928801154922,1.2050378983947496,-19.911162112250395,14.217859994495939,-28.06193648516819,13.248167928241116,-4.243183706239847,14.879404423343658,-5.637239753459937,-2.387345140054549,0.863480597737265,3.619109398421017,-0.24010921232173565,-1.286991124444782,4.533772892076513,-0.838479716974696,3.878461200325546,-4.621020150488391,1.314634873495848,-4.291467599574389,1.3527886928375636,1.2804363199935125,-0.8953324221491243,0.05208036420452089,-0.023135678230126633,-0.23492460869783827,-0.981001163590804,-0.3853730442328498,3.0122750387079407,-0.7908275908285418,2.5307454772053006,-0.7155746200258974,0.22147587923553758,5.03053807805199,-0.018620506809988058,0.3929665364061883,0.8607113818091889,0.1604376631593709,2.295844951406849,-4.648745841652044,31.008244067265878,67.46013620341273,-23.149630362287326,-0.7549454939273659,-102.2779304153155,78.90343606062743,0.2266214573691272,0.7090916398761138,82.58171817168295,-27.418791931409487,24.792177379295026,3.9080070755133534,6.650256304434777,-1.9218170883589778,9.767462492083041,-0.4633273370912683,1.5983760652768524,-3.387340677985634,-1.4811087389215771,-0.13265002271246829,2.1745015188031402,-0.7483725596985806,0.6813467124263717,0.3459662480851051,1.4141093075996025,-3.1457031021572845,7.322260136533885,-8.074723639665649,1.8057879410388011,-3.985195242807606,2.4359053596323577,0.18483828261478052,0.1269067798928969,0.095789520608065,0.6701288798317648,-1.8184121225931449,0.3136292954708466,0.19457492386742814,-0.29948553807834344,0.48218189002195544,8.049026030795403,0.31605926616667546,2.780757552770609,-3.821375302839101,0.30063645461814303,1.886642283258638,0.5303654669752689,0.14488410480196023,-0.14585185306695614,9.68787034558909
301.6541850325302,-465.71131192788016,487.67164104647236,-493.93782835433376,452.92565294355154,-380.5496510201774,2.3788169540172532,62.719326509177336,-429.9486352787353,104.83319135448119,-205.93793320307668,118.24731474816872,-1.036322602423013,1.605074639367075,-8.554854360048012,31.01831193129692,-0.0010054420772733774,5.980716071972438,0.7726447490410919,1.2783272431520345,-0.36282557874341137,2.853105315776375,-4.016199561047074,-0.9684979241816336,-0.6110504770708758,-0.4110969076704123,-0.238907486662697,-8.504775942999743,0.21005935543257692,-5.930644693674708,2.95907578736373,-0.021964808554116644,-3.383155921726086,-1.4579253907198506,-0.5196830291943044,0.5889806757018476,-0.42338113526000143,-0.2717238837513527,-1.1405144224601713,-0.4973650959113911,3.6544153149512795,1.6175510994521574,-0.6878426904896173,0.7593062422768071,0.16755740573346145,-0.2631659235000825,4.1440748985918106,-1.8559451642195768,4.488835070820642,-12.3532256875842,37.51664000274104,15.688029636043211,-48.90478977065868,12.702254538019588,14.487068471265957,13.665642349634709,-3.32558161555653,10.298262697388054,26.087744038268283,7.992429224706768,7.019225035531008,10.552721768822266,-1.1327297040888311,-0.1591367952462157,-6.88271294294691,14.374767906809666,0.042345284112904835,1.333354989564441,0.3601427866444311,0.6444008315612564,-0.673418793733731,0.3974528311994181,3.025373237766189,-0.708277335377403,0.5564398092406719,0.2613219826342217,-0.3148272261488927,-4.811170584210345,1.9742776990615312,-4.7456802964684925,6.205895555719167,0.022143614206157736,-0.060025802827706976,1.210892773352569,1.0553210120743017,1.5501060121111152,-0.894959404374049,0.6995635979167645,-3.286820705677485,-1.9213899865026178,-8.220001587082777,5.969235952170948,-0.6081023322572321,2.2312966305463533,-0.7466429788007076,-0.4673270073074036,7.954719314888507,-4.243180587667155,4.428786152446264,-4.616273887004354
314.455929257565,-480.67670526355505,519.1257726961157,-394.52024126985634,437.5433290375295,-276.9294439601108,66.27024508818795,38.13743894010986,-373.08544948404597,207.46539692836996,-173.44799795553263,3.0097234453945134,0.7991050151662051,42.64120494721283,-29.63783092320341,21.64531190677849,-6.660299086703731,1.654665869527662,-3.113802542953948,1.665799599383547,-9.253199927483365,5.002123309910758,-1.689310607346087,2.7909269799087895,-1.1185499057074253,1.7418640414714446,-1.6668666405197428,-9.66267232515429,14.608418518124381,1.5177777373269237,-3.0208780010203213,-3.005359797044548,-1.8416533330805862,0.38654144901784093,-0.05652859989598635,-1.4527582283947424,-0.3241117209801452,-0.2782697974199646,4.1227056931447805,1.5769828621002802,5.982289058282845,1.6799587692622424,-6.128564448879047,0.08842628449737155,0.0794126464542444,-1.2446491435756002,-0.4412084275328567,-6.894202721740157,0.17730642483258663,-28.69709831433329,21.815856384417657,-45.66552992264042,-34.78317354314731,12.412041111407689,-45.47997370884423,-30.633020764955972,25.030106042374427,-7.141924008386923,-51.56524458439071,7.975810527006615,4.196418107861518,1.7906611344931491,0.4611884957057377,-5.2782236951952655,3.5844209320387677,-0.5235618795313002,-0.691396184358041,1.0677850115532692,-1.579272787622827,1.481925565872615,-8.53846599862868,3.347222528266798,0.43660214420533094,0.060552102533915964,-0.4184593298413688,-1.1131527502873269,2.4756028678608004,-20.61369968274812,23.88689795172968,-5.016501166843227,4.043125575668,-9.478947736269674,8.452273594077496,1.1906996880952647,1.3384308679204935,-8.377984055929346,7.334293244517539,-12.92648571724908,11.256366629844706,-7.259299986089786,14.836182522479817,-5.809525796362891,5.231555970477984,-11.65420106822296,9.427648087117632,-11.066775504571638,2.052097034747419,-2.504447238620571,-0.5429445127335768,-15.294921118268121
