389.98170012509945,-389.6289843706545,423.4211886468984,-498.14900149454843,274.6745859731236,-312.57779014787775,111.78376464991015,0.9343018090690407,-213.60466974882002,297.83017427163577,-159.77304334163273,46.53273423157566,-26.403268201162064,12.845338681015619,-32.04931582278209,17.788620150525958,-0.38933316962886266,1.4530694129484516,-7.7256507635229354,8.444322327136433,-4.313546073981428,-1.1941309228568286,-0.3379309398427779,3.109996593707365,-0.010627707689593535,0.29811938595040033,1.5339550147193108,0.07052046518324318,5.487620553549846,-1.5478060551226207,1.104454544747938,0.04335927725686872,-2.0556263719807646,-0.1770023020807372,-0.7327080272655735,-0.5178671699927406,0.06341124713996038,-0.0006998583585361429,-0.07750941399819311,1.7888168692127095,1.9932812122327164,0.032519486807919495,-1.4771702075203166,3.056084216859375,0.2264379695340324,-0.9357772988787048,1.1852662330535964,-6.148872765699139,-0.5848419721037601,-4.707961666358642,11.12382411789099,16.320236101488945,8.561051876007468,10.325550857888288,-6.8330071497683775,-39.52098213940462,24.750288905677735,0.3234214815433454,5.409597657093741,5.803582823488398,-15.104859559416127,4.435002996872356,-0.09497958462251432,4.00821828292942,-1.3108788418570327,-4.427108292436088,-0.4279293189546962,1.6228933774177818,-2.8320443537603524,7.306399298312272,-4.531233451934781,-0.8397137082192216,-0.2996051436570184,2.9568138344497896,0.06323780383081612,0.42325385174794405,1.654357276316091,0.1858721500757099,-2.352188520597167,-0.27293333920962404,0.3791833781044076,0.3035966222473121,-1.4802488389134396,-0.04920377681846588,-0.9046208700410148,-1.3518078766163626,0.1474255493140788,0.03304379051835582,-0.821009401361195,1.1848874223473587,3.6388648532306433,0.6513500920704516,-0.25183190997544713,0.537053369147479,3.718835796560427,-4.597155441162897,0.6505539950619692,-9.555155193210112,-0.16744592310505624,-3.3999126532097534
365.9542630890064,-440.49021482381795,415.3407949140601,-440.9916757553947,432.4189834834542,-299.6764065443713,36.249031347659866,11.516330226641003,-285.3733409117085,328.82560142422153,-68.67878907944487,1.9790496593359705,-27.785068225676923,26.798538641116465,-49.93763376690367,21.58269034823752,-7.460009316250762,22.893635938249645,-10.32905978026156,-0.5445334652933731,-0.0520768667202276,5.687558561774324,-0.5708792279216652,2.4616123520075917,0.0006285773009437889,-0.6074734170664797,2.2321735447819435,-2.7659431926480806,0.3526509728456997,-3.3520095160225765,1.2838438989145686,1.7477357811114445,-1.0806036261769236,-0.0302690694112151,0.06666918610407713,-0.3339315003831871,-1.8174481713898842,1.22078137510033,0.1179310179796289,-0.07899102250529033,1.586146891831845,-0.16328962268375236,0.27842137339418116,4.564006902968458,0.021654062843382338,0.1893090885442703,0.6366248799620564,0.14224427248737115,2.0605335310374358,-3.6573957432310635,12.560678453887931,56.84137433322303,-37.744318733996806,9.703632352438945,-83.37792163463746,61.58349594222909,-0.5661820684344292,2.6635793330711977,32.99791163073178,-5.932876439202914,17.659913466178523,4.168174480416724,5.757017636169337,-0.6420290114959499,10.333366133859613,0.4007731046676781,1.9801969800337247,-3.6247520862034435,-2.228989156663033,-0.09161098846643956,1.138852713965548,-0.18752451617261467,1.857621924662908,-0.6332115142774342,0.000170875987791419,-2.187340223923684,5.117412677809597,-5.370311592111875,0.5603485145091511,-3.0063268893349573,2.140911495148174,0.3848933572958835,0.020357275618471116,-0.04529602610419303,0.9061250915051104,-1.7290942399504274,0.29249812915292495,-0.48279792297077506,-0.0019437903462158346,0.0415860027292414,4.282603229219831,0.05874935177505147,1.809668769663574,-2.8212202723342443,1.0295692450323912,0.7496924947659451,0.3598229867284317,0.088969656696122,-0.12958674244771373,9.858212345693119
254.49696786603454,-433.1193562262997,472.78287007236213,-469.3685200964683,394.93821660167305,-291.9583182043425,0.8411518557763742,34.60202949336235,-257.43805363116553,51.28423076434592,-200.29499372543614,143.44354459916667,-3.5514359463043093,3.047607318521557,-14.369267434287849,45.224686266763456,-0.0650168990732709,11.50080614315084,-0.7632036718382551,3.048145432279739,-0.8636975078932778,4.7759733901893355,-8.087943075340945,2.363466838808108,-0.9268417015057366,0.21626613853459276,-0.8796005146023163,-2.9257401905770166,0.10784323011502295,-3.411975197239201,1.4282623646299442,0.9982529913344251,-3.662167666791845,-0.9870494860404619,-0.9162179809963504,0.47632582729960404,-1.0425711410402698,-0.18927073269516903,-2.0563257018270065,-0.05675353627822233,2.2299783598830203,1.8348082193343487,-1.360645461458752,0.8103378971016539,0.2569014930297797,-0.04723006573772892,1.9887655126000396,-0.793362485797843,1.3892374334159285,-4.7031140534647875,25.886513817872583,1.5069663191448797,-28.744461609732753,22.505840179637744,3.507155424165944,7.104758452146598,-1.9275225861377976,4.574109260461228,19.664907974889502,5.123656841883928,10.291272025646037,10.077825910109652,-1.5063494458296134,-1.084593647982274,-8.281593537355434,14.040075762221704,-0.05096709160314816,1.5010850115822763,-0.30430166522089763,0.7747112920862094,-1.7372097481135143,0.8374675130750262,3.8031082066734996,1.695698456531872,1.062913245687497,-0.06580565035687869,-0.8519282476236469,-2.875005729581744,1.2151734978557442,-3.3268041491825784,2.961153270551904,-0.7647619199796054,-0.2121774135941905,0.47559063027287607,0.8378906945188831,0.6726992745527127,-1.9875474221033471,0.0889976647857651,-5.148231750021353,-0.26108636387095885,-4.372363536186157,6.551330171450559,-1.0866253035732498,2.30103193027702,-0.32550186263949854,-0.08634893587807824,4.532757988460048,-2.269212436698581,1.6660801561079097,-2.5543428372183143
280.48849576202883,-463.0536474605833,498.085445650715,-343.2842671952385,347.5161630823568,-188.20436124692242,41.192460381457295,18.142910336644036,-201.26861682202798,113.73856662977232,-154.57990928109757,6.415566886431748,0.06019338102762184,64.09682444170176,-56.17336119104948,29.31575826410335,-16.092020151323595,5.505141889172194,-2.517308626382473,6.019144199791469,-19.474036109248118,10.649236178574938,-1.4428310790058845,3.1455662629514336,-1.974850786310526,1.2011899216994948,-1.2308444585102336,-3.644926030883994,5.994545720201671,0.5155929826225929,-1.8122330411249266,-1.6926788872036695,0.09457958156096069,1.3500639586585805,-0.03503396215481658,-1.3747215249306635,0.2690262195066708,-0.6859909688302324,1.9952079139514183,1.1235458048909237,3.837068578751712,0.7105405591574936,-4.769771759230366,-0.8585122042654518,1.0283880080310155,-1.7252201435791505,-0.49525591125850355,-2.9983563639348176,-0.001704838278548948,-15.81142422139601,26.324083109551566,-48.45720866128431,-6.890671954141567,1.8480777486231545,-35.55024608366875,-15.239126944066584,14.217679356229837,-1.895820740389837,-35.46106832819828,11.94482776998882,-5.215792676986695,2.3412618327100745,0.2845314077185819,-1.3683089836112003,-0.36954621404498766,1.6178338180091032,-2.3970017779382147,2.834339447171672,-1.634268165286663,3.8943638948245507,-14.258788892882876,6.265549173020247,0.4837227870570615,-0.12088253020976936,-0.8187615800926835,-0.7209885829209384,1.4714560028072583,-7.44170446905423,9.426855911389794,-2.163557526029763,2.018016022723117,-3.713493345616655,4.130656652563118,2.306300440396427,-0.11829601973433057,-4.387225335821427,4.469457790796241,-9.23112372307287,4.9097649186240915,-5.521797731704055,7.873555601149349,-3.18615367869927,3.3537799328904043,-7.464556376503424,5.595221659691447,-5.864096638984051,0.6392011167519343,-1.4095151964255592,0.003170872378532863,-11.856903797383325
