338.3623444625755,-335.70518245558196,368.5102818126252,-435.2502588515563,225.4382128075231,-262.1426717978393,97.24878194501798,0.42994124523623967,-135.91909480138565,218.59886567159265,-137.67369428966504,47.33134382536082,-30.90094531673094,15.514345211393561,-41.39351063967251,21.026380949358554,-0.663787321726133,1.9798597521475756,-10.715427095969403,11.482157380616627,-6.00884410274432,-0.36268435275511024,-1.4459931341878018,4.228812502931106,0.007776352606381209,0.7579537058090331,0.6014515032333776,0.29516319907706645,3.249474344270652,-0.9731124861017904,0.732211432467448,0.10469036305175905,-2.0279223010279424,-0.051631620277390766,-0.8375787047979699,-0.5551343467775993,0.08317268657804533,0.0044337426998026785,-0.21975958188869527,1.9823309411969205,1.470119617989596,0.02947395083026816,-1.3385487158996057,2.5672221857960267,0.3140955809441728,-0.8545925606093476,0.8582890366189844,-4.122450116695262,-0.6470291571004623,-2.580290564206507,12.708231066577014,6.761105842508414,9.829115601635522,6.621164009988547,-0.47040208932395444,-35.550992752368074,20.346163591511868,0.2573333940140934,-0.3941109656317394,9.956917857737722,-16.519414149356066,4.1335399593544935,-0.5176974822966045,5.682250358791094,-3.581752768141939,-2.9132175894734473,-0.3289676259681116,1.5480721833067292,-3.636135685882465,8.264568748553756,-5.155746078151765,-0.32641558965099904,-1.4463643968058477,4.374755559275286,0.08678468372096404,1.166385090223578,0.7282636065489783,0.755655518255395,-1.8753902259594497,-0.13300192770155483,0.18209563325491906,0.8058231530303601,-1.9383328062082938,-0.015401300586155742,-1.2611748820766877,-1.1176071962470076,0.14673267517975574,0.020239180436931292,-0.8841503744414467,1.48924776507846,2.3242094247635237,0.7302115943606111,-0.4329677084683681,0.8299835816126233,3.006207063366091,-3.4863826201566326,0.5652392332160403,-7.044232185899091,-0.2417642399180977,-1.7625509699673785
287.3583762783019,-347.3769376972177,328.3971645896527,-353.62770003492915,347.31167113825177,-239.17336849678577,28.958391248528642,5.727304160784001,-176.60621619375888,220.68609317000482,-46.544014936758686,1.8312809232531038,-24.01428148160312,29.966215011448412,-56.61762569501707,25.092457295369968,-8.57431097069707,27.151466960819562,-13.947831583532661,-0.1257278941132114,-0.31565744106558924,7.396033506919139,-0.4438406093017875,3.5022491890237006,-1.5144310105903003,-0.46466477414165297,1.5258106044526585,-1.7159806489329412,0.09655636457866734,-2.2482345388560674,0.9206288177159863,2.2432159837154586,-0.9435868088871047,0.16699160535130986,0.12477980297830982,-0.36983952004017695,-1.7555871239802059,1.4158745846115721,-0.4680122944747822,0.046570694539667556,1.273928332462475,-0.02464589475156198,0.3045371077055137,3.4719593647631086,0.1397540724293167,0.08445474521196417,0.5286340199401991,0.15052534379631055,1.6316586953080048,-2.5896926259836164,4.473475579128717,39.488414674832484,-35.602804971450496,12.636469580061885,-67.5663668549414,50.95130001234111,-1.2663709689581992,2.6096373521824034,7.1881169099306135,9.424520220943691,9.331518404796725,3.3681407708000393,2.602977227116753,1.8674036130941687,5.7577147316380035,2.152064783328683,1.2380291292277832,-1.84290031310357,-3.4056538439346014,-0.0036046669897612515,0.6988927126919009,0.4786681371425061,2.0357552589866543,-0.8628693754109307,-0.3842145987691836,-1.4127812586756079,3.567783046528916,-3.5010786927573463,0.1469893775493052,-2.1659387483759645,1.484076571387206,0.668365609779439,-0.036695436935570314,0.21747364328984986,0.6683527525503905,-1.347269531277803,0.1385560518329747,-0.4021436538830798,-0.07053419525913984,0.0005386366188779856,2.5459864930287495,-0.03200562359358483,1.113619913864028,-1.84465163358729,1.055752764388707,0.2376677108209222,0.18675125656305624,0.06812212794769401,-0.10346082768783837,7.7903334728762275
206.42022084720156,-374.31873085520783,423.2303241161935,-408.6900486040249,335.7715987874544,-242.69997765767403,0.753692187699528,19.76579921109078,-165.5902044186214,29.899600960112366,-168.4387256987202,137.79587879641076,-4.086845845523612,3.975598315630606,-18.5335267468173,56.764495695983896,-0.13678165990657476,16.484762344792443,-1.7864800986879743,4.704515518691409,-1.4946200737377637,7.13564245125724,-13.153763197879016,5.043880029548745,-1.5035691160663305,0.5467564633536597,-1.708612783157264,-1.4266054687878693,0.021003469819689258,-2.011183142568143,0.344732893369212,1.9039746611240105,-5.348649615897443,-0.4819929886411387,-1.2452262773715574,0.5836983871645458,-2.0352296223460797,-0.1888569248609464,-2.969583460622289,0.18324245769069947,1.4311655719931196,2.4656115661312583,-2.453630296093138,1.1371522611696605,0.2947914401001057,0.0015172542647974296,1.4041242474965259,-0.5785799032795751,0.6451726876042585,-2.6630855762579415,20.758936412249568,-3.594883951533518,-16.353438711342392,21.632737073209228,0.49217343489009124,3.559452234920684,-1.781687836935106,2.8285046535754645,13.267761256062272,3.9509438469799534,9.445923541050888,9.653618327826507,-1.4734358360766464,-1.6825728720091462,-8.77762616586665,14.319030487013151,-0.09941619332257545,1.9493921406654522,-0.6868768839136123,1.0171711453769703,-2.657298744762983,1.10754264589481,4.242726846616279,3.2065113198362667,1.8087090130710664,-0.039233677675015954,-1.1375608960146906,-2.1250644485641033,0.21801531318465095,-2.55533809239094,0.7111022972080718,-1.0882618354307994,-0.12192562661096673,0.06768965084629919,0.5596089470956258,0.1866279735245655,-3.4539145268599043,-0.10936970014650882,-6.3772548591726945,0.8373103070316006,-2.331881012004885,6.527317150098497,-1.626780028167957,2.9336086139544477,-0.12262158572002235,0.002624747814209627,3.276023755510664,-1.543948069379212,0.7752401949650221,-1.6746394675973875
244.4834372792102,-420.9899577827564,452.3362035136015,-300.2006084576551,306.5408053267747,-166.43785627145553,41.57733669871868,9.68557016402599,-115.20611404812007,59.95997145587262,-108.92383540497394,5.191914218846591,-0.010628631454316917,67.23542107333742,-65.18393805937603,31.439069667862668,-20.85737165109549,7.056567648730663,-3.083982153202669,8.095401673286744,-26.91440135556877,15.672157915309981,-1.6323536676570285,4.030798451228748,-2.6653774641191035,1.5028821188362826,-1.7411983362846684,-1.8651014704260689,3.2622425305909815,0.799241243540223,-2.2542853212489433,-0.9698753100595923,0.04946958519238365,1.5224358335155443,-0.10827712291899516,-1.0481162736523402,0.19772360647135656,-0.5015370918337254,1.196721607135487,1.7604294592872236,2.7027892383478473,0.9901238927046734,-4.9330998080512245,-0.8679770054040858,0.8953878561839019,-1.4259768074507804,-0.8839745159448,-1.8877528119607092,0.07651409209879034,-11.905422839604398,26.001532143483928,-46.47771313959947,6.49887750104233,-2.0380891108015504,-30.075046080019092,-11.638597951299744,12.834788149304472,0.032268058160463964,-25.39842976637192,9.503051182506852,-8.566529723695567,1.4365612446318607,0.07881602067650206,4.128478748711643,-4.957596850347045,4.69115542285175,-3.914920465972841,3.3577369468100358,-2.6199040524943484,4.774808704716463,-18.64943496129763,9.17375902748745,0.004556096195690085,0.5719997849312364,-1.3811026802620603,-0.23387153179417908,0.6839238673461345,-3.8148059557822194,5.1451073491329,-0.9477797208523953,0.8480802572303503,-1.9173010574782836,2.4796592653797234,2.0644375662074026,-0.22484586230230974,-2.9232263722806238,3.5116016025565955,-7.604911026347281,2.8575820484547876,-3.862910947996795,5.178965934887145,-1.9307062068714913,2.0139507243088417,-5.968162460973758,4.146669194612969,-4.107776881821422,0.021565798626203225,-0.8557237395850201,-0.1850347892851545,-9.50343100154214
