44.51673436368765,-41.504426859417435,50.584438331036836,-66.06517945726955,24.427424451635034,-41.435205731890164,24.249559304379318,0.060550662994736104,-5.736389924011519,15.736268693703778,-12.190402575292865,3.3903537680400575,-3.240898272777031,1.9785198758958131,-8.1332108033655,3.25198651774798,-0.2670610451532909,0.5547188998811734,-2.639898816948161,3.298500736171718,-1.8239683633658075,-0.12646719102279036,-0.23793896611567078,0.9693953508189566,-0.05097094041074435,0.1593490567551381,0.08345318665743129,0.07011131287629535,0.1261761176610321,0.10346270902188515,-0.18054322932713074,0.025320526230321327,-0.7092750501217893,0.22812328230569534,-0.14956699640947857,-0.04382659134973821,-0.09983510062059509,0.07107238071071276,-0.238348354378779,0.6172728130839467,0.0706795245719487,0.02311372515992005,-0.23252113166352295,0.5088252185195472,0.0472726962007286,-0.07536007443223625,0.009875690126856185,-0.4621092635278572,-0.16731694319369694,0.13812921936866474,3.3446294862161494,-1.1296537454414874,3.5393303586261595,-1.4726271119141074,2.208949226120751,-7.2603592126579315,4.849042176087437,0.0792193286711318,-1.4481975806788796,3.675120566492751,-3.525672644692577,1.1082307347805624,-0.938523683565677,1.0948207644514696,-2.5778577955896367,0.6503537554755212,-0.20625608614164292,0.4294398470529117,-1.2824758326819676,2.4870053711417626,-1.6674452235147612,-0.1032439069372586,-0.23484499691936378,1.0005717150833675,-0.09961536808877369,0.18812740118616134,0.07468318206899305,0.1037699614261034,-0.01263731527405021,0.057616520225542533,-0.18256118186135506,0.051292140571524314,-0.590149698024419,0.15742546316242212,-0.21682052594864487,-0.10531801267582352,-0.20126218671566676,0.16230832463208777,-0.5729216479289789,0.44162744262465026,0.11868178932815887,0.05478182643926299,-0.12157924358660832,0.25825592057961444,0.311887507015598,-0.22971546029492274,0.00955548936651418,-0.8546598892777837,-0.06410046452181462,0.09657727537756422
32.18783579582487,-44.222628529913436,41.4239429990198,-49.546887371034245,54.74687938329225,-39.672911813495375,6.502099701540601,0.18815459089020692,-8.506211745345354,15.034422389794827,-1.618584294951063,0.15748934426867045,-1.170701291485301,2.8409866201345153,-7.297394992367003,3.449769847040102,-0.9919040546458291,4.926778738257212,-2.809718758111103,-0.09658962159089768,0.0145826207231321,1.7595472501072749,0.001219583981622481,0.5933564380724654,-0.30944038168044585,-0.0021168432518616775,0.15140937186165715,-0.10218916608662099,0.11398073942975806,-0.10976320905419001,-0.04710623499326827,0.8556041848771585,-0.22602168032817715,0.22755938689091337,-0.05608473273204595,-0.006528555809796055,-0.2962516040044463,0.1944908965535994,-0.05880183920733195,-0.04010389905077805,0.02338524104077866,-0.09338206555606243,-0.08216363901939383,0.5662793702607871,-0.017867536652096394,0.12115443760309041,-0.009552668461196845,0.1859333776712262,0.1300923112895056,-0.05671775957245373,0.5463480054080776,3.358749970495211,-4.80689542491632,2.4821680043527294,-9.780100089952612,7.073847357682155,-0.11603786708523334,0.12095428287529231,-2.6766991601905374,5.006682738554332,-0.29448862171189916,0.5089355571479928,-0.36610683428296653,0.9840727185430893,-1.441633946800593,1.214255088900046,-0.3181437212121523,1.2271710506261186,-1.0906902699123293,-0.10008968552182118,0.26880890339725383,0.5429790852552188,0.14131023441786006,0.09316346450190416,-0.1881106815435203,-0.0056392346893900935,0.3156485311251558,-0.21725528423216645,0.11507908298319958,-0.136344249493483,-0.07615880974138012,0.3551578026126698,-0.13301210411884057,0.2732236692451906,-0.1480872978660983,-0.01325102647564469,-0.16930046180211988,0.05938523152551811,-0.04465252028874378,-0.06288050045592808,0.040145166742089344,-0.12511440569922172,-0.2574956872023275,0.02228369072994596,-0.09784477332671848,0.25005172463988146,-0.003682580213563824,0.13954840170224703,0.020158529351543608,0.7959717149600607
19.685143364737087,-52.724072294060534,70.1066269475632,-66.65445870877011,55.91309849540812,-48.308418526717105,0.04642524009323101,0.40251911483443337,-9.521876244241867,0.5011184262477997,-13.834979101610543,14.446395065106799,-0.2552707315015219,0.19637860470346524,-1.9527721080168305,8.43723583068197,-0.012178896493601599,2.5732779327508126,-0.26606951400563617,0.8279079267924772,-0.21746778578222603,1.2847135086401522,-3.5925563559950717,0.9940066066925084,-0.09912078190727147,0.19591147835263278,-0.562969521886064,-0.15927209465585346,-0.0016368036978278155,-0.34302595001434355,-0.014155699017535994,0.7344647413113989,-2.204040032298707,-0.04405408049782977,-0.40809253226279374,0.005478267550416527,-0.6046263791652962,-0.043893166469914036,-1.0229875768783359,0.06524970633451588,0.22124308928863545,1.0801747573746923,-1.3582063674479627,0.25401146894612125,0.07706763368933167,0.08027136251012834,0.1243536117320545,-0.018180660008670912,-0.08906116898356231,-0.0811709663747493,2.858189198495438,-2.919272133562032,2.216953850228265,0.6905761422806052,2.814119597771537,-3.2734449047930525,-0.4199987149306814,0.15220111204781084,0.08345554048390813,0.34170521488933403,0.07031596709694998,1.8945444657678934,-0.18750096187286402,-0.3131451381354289,-1.059430174510311,2.6356622201268465,-0.01281827015360193,0.6071798586610555,-0.13643211290516888,0.29965719415372405,-0.4552289004078247,0.32479702200384963,0.10214841931290142,0.7158517603891283,0.4133935997595728,0.04912340925038006,-0.32674975572848197,-0.31862125450476775,-0.007293525184849159,-0.5568099656056376,-0.027835841458625055,-0.09691702014083425,-0.3934951224178107,-0.0445920327435374,-0.0771181049664289,-0.20455501517315788,-0.8203790006078293,-0.06254826267149127,-1.4747391756400248,0.18548117818610876,-0.1219773317048789,1.4219543973323212,-0.7386276406998604,0.4195633525746558,0.05634979440481658,0.11497459224380435,0.26521490838149475,-0.04478220780121944,-0.10880044621629281,-0.08515881182032103
36.76911003053465,-76.88205918051608,84.46365373282606,-46.27854362186554,53.41195312754462,-34.14059240765255,17.62035810069142,-0.8322756938508036,-4.979993559584841,1.7885382496402258,-7.293576683432548,0.6508737483387037,-0.1858918405057466,5.702962942609702,-12.075629327800925,2.046690528409499,-4.606423356586106,2.042763558282502,-0.08261040700242539,2.7456650077639893,-6.688280334230512,4.260799668768698,0.0669430730409859,0.10324676804715693,0.030056198323701322,-0.03945858454317275,0.017197335181839968,0.47908054593097305,-0.41010435822262536,-0.061280651783786055,0.06349410149254942,0.4816913917118022,-0.01361155342878606,1.2642178409810754,-0.683798004453763,0.2680915801876349,-0.23832702994238275,0.25572851450816714,-0.3281991377937601,0.021934968231979157,-0.22531935652165558,-0.05895752912125385,-0.1579410944975237,0.08401014914587979,-0.07765701803197267,0.1734235442461607,0.15797400791537797,0.2606395741636476,-0.08688064936016993,0.33740234338767117,6.732583823534242,-15.140983614498396,14.003731381101488,-7.243731377928725,1.726307973441095,-5.897480920296516,6.149212001856796,-0.24969026867831268,-1.8995157508445004,0.6453611410330424,-1.5543316551198956,0.24426113270263627,0.7166412720595758,1.5845618024329156,-2.7702693297155747,0.9173501655269547,-1.601400758149822,1.176824719191913,-0.11951013139300848,1.9155130344369127,-5.307701449821252,3.0347701702725516,0.04625099966899748,0.026877448997014497,0.017250502335933948,-0.010353733222183137,0.005980625155369568,0.9521993706313125,-0.68010817792414,-0.024572556606891283,0.02890859514196431,0.6581119643498141,-0.017427766341956752,1.2720832801583128,-0.5416066193255347,0.35991473529016993,-0.7586409388851116,1.042854274127464,-0.3496839479353113,0.017078217960087017,-0.2210929101329917,-0.021959532804995296,-0.05788655416880317,0.16780949795987077,-0.10599146114472191,0.1652155053316129,0.15067126853501023,0.19396281250989134,0.610086682950449,0.2841726053324791
