8.338147631902359,-7.075831235246028,9.412446457489636,-13.833194318259302,3.07032456000411,-8.015197810461189,5.230670213445592,-0.031084581593889826,-0.8609497005307958,2.7334058011007016,-2.2507005397974353,0.3594417796295204,-0.37602784303960135,0.3033944413100258,-1.5330799494652467,0.5541708556261682,-0.04433735925916671,0.0886689670993488,-0.44229824925018946,0.6891090919475289,-0.3298456314821969,-0.02643122183771851,-0.038990886801384406,0.2159093222038848,-0.011272892146567126,0.04225308181166887,0.009749616494641122,0.022783168138062138,0.0412229781450435,0.018621006611237,-0.054995106844421215,0.011950019099636,-0.2593901087667625,0.034107881581238564,-0.04033152605833923,-0.015147289479311432,-0.021009478573530416,0.011929723969168582,-0.06016981812664879,0.21604838215237265,0.015355636945818318,0.009778765223079855,-0.05765795050499989,0.1832529816244488,0.03168124452923138,-0.030583538658840226,0.010822202786674562,-0.165022361663949,-0.08221264646514204,0.0014780528330176068,1.0765431816454267,-0.6057118707119926,1.2814167489430162,-1.055313771913461,0.6440727278113911,-1.868106511254453,1.3409032894737436,-0.03341021659653132,-0.3440267151003553,0.9237009008374528,-0.8899008156438413,0.19656929927415945,-0.1835809544102851,0.2208206599203244,-0.7153923400127269,0.24329559895562625,-0.04351075050951558,0.06637452257136722,-0.24915785597970697,0.5559440719805977,-0.3183229314272715,-0.02264338866986515,-0.044295411593984646,0.25290689897293817,-0.015033502402388876,0.05064482159735739,0.008894658432687885,0.031019413263663864,0.013970838843828659,0.012299068489473652,-0.05905456155287592,0.01940827331137518,-0.21863964166087158,0.027088372509156855,-0.07665567802944473,-0.023812304948023222,-0.030403619155627837,0.01692311369940791,-0.10594867229037774,0.1753551381156626,0.023631906899574062,0.015747430771028803,-0.03549525079930227,0.10646794323889708,0.09452284080592221,-0.06552134295576506,0.008853765453110563,-0.25670422637350754,-0.04766885614501781,0.0011565410971350332
4.500815792584831,-7.03298535130034,6.206273813127609,-8.479591247043572,10.119274995032015,-6.970440636821877,0.8478362155562671,-0.07104215201998487,-0.9794279294893045,2.2123860633402614,-0.17502877260272243,0.017966317764297468,-0.1224660202073764,0.3302512490926546,-1.1581019133772514,0.4508487024450005,-0.1083656159090669,1.0012052517904522,-0.4316878358720828,-0.02447794947493942,0.012880257695575548,0.3630154896360338,0.009632389750009462,0.09438956010622945,-0.03737762257733124,-0.002742199587049965,0.06133342832834465,-0.04716021508330703,0.0379397649887796,-0.05142733585298487,-0.0077719172095873645,0.18942151246436367,-0.05018216264690789,0.038415011564364665,-0.004338066998171852,-0.003268522607453167,-0.06716900728087616,0.03142006014584364,-0.014748453368432557,-0.0182805806035774,0.010688642598552178,-0.030422881759134768,-0.007372311938073639,0.14224290394068362,-0.0028263526478096435,0.01988273423005893,0.002855924755265582,0.0402369417713806,0.038725565046770605,0.027755648418745338,0.3927175345386935,0.0900260386178271,-0.40946695272445766,-0.1976597028100855,-0.9856675107442214,0.4643441466475906,0.12666172950063448,-0.033232219137752095,-0.47583767806594324,0.9868784018630805,-0.06715290841910493,0.07078985520434067,-0.07196741657057615,0.1577187257487438,-0.38916182853560954,0.2348443503371982,-0.06937256282820714,0.3950343174644786,-0.2146329941099232,-0.0316251004326642,0.03861272593147547,0.18853592919582773,0.028918217669147595,0.04088492862983628,-0.0326464457027944,-0.005182439194036825,0.10142951447167814,-0.07863569813516591,0.037004750093391436,-0.05248109525010203,-0.010269396638914685,0.11236437636645036,-0.03929353677620551,0.050607922955855145,-0.009268994012923137,-0.005780720903508785,-0.041587157110414275,0.013554075948382316,-0.012147141495836067,-0.026487287314449492,0.016735988699338122,-0.03357416421944137,-0.023050401111417873,0.04160651952072669,-0.009110736847616208,0.034995004643725736,0.0007918618908328567,0.03167559150953103,0.013311132712423124,0.17367087419270888
2.6224800318421586,-9.841702041336589,14.735811103097376,-13.611903460323049,11.003865036722345,-9.777321434813985,-0.016346311908054356,0.02039732046883236,-1.391984734246705,0.041118697448602415,-2.0076850856906105,2.286015529966477,-0.039420159325175064,0.006452438503565361,-0.3051656236425444,1.4966067331291413,-0.0009980130003488519,0.4600934746783274,-0.04763619073349101,0.17166319876866876,-0.02971080590831554,0.24848791361223022,-0.8406051579774143,0.17096611737738243,0.004703553031915608,0.058515103313434125,-0.13950434493686004,-0.04444045170700761,0.009060905373342365,-0.11530477339521372,0.022201014347658088,0.22934689602783465,-0.654182783412125,-0.002410877579472226,-0.14521101690536398,-0.013534349010058122,-0.12747362298188314,-0.0042863450373786804,-0.26008816775415156,0.0015203721264709369,0.0612342429499968,0.3038367844970349,-0.3193262671064989,0.032415376663710305,0.015381320218113226,0.04615809205507304,0.013087032230298501,0.021402097602893022,-0.06563342351536328,0.034116279689220264,0.5610133664581163,-0.8814699028370185,1.0153921460412363,-0.44639981797896766,1.0454167778804617,-1.1217786625094277,-0.10192557932328761,0.011431905411299348,-0.19633191239751824,0.04902004359382062,-0.22595718360155104,0.5677675587741291,-0.03584386794656602,-0.04917004490874888,-0.21926303354113585,0.683160111507064,-0.0009905402785834738,0.15056026311210413,-0.026177763973222135,0.08178853629419303,-0.06995242605602403,0.09622001932218094,-0.1379657128900007,0.14963889865891478,0.07073583344436418,0.02277450761164257,-0.10070892335460435,-0.08752812003393728,0.02758426008590753,-0.17866681226386838,0.04153769492701187,0.01868992916096701,-0.20174677511793604,-0.004258441425117443,-0.052601240662861315,-0.055114710012489354,-0.169141990500715,-0.005339781116404652,-0.351947956176744,0.00391784143602969,-0.00031266590108236167,0.35971671518757375,-0.1775250922117193,0.04648961037315935,0.010843708468752267,0.05401307634590502,0.018734503178320594,0.03437814031384612,-0.06750850837379474,0.038402989501154394
6.889119764240149,-17.14895533684694,19.44664504481625,-8.41279298762845,10.820102293187688,-6.407983828296096,3.9310453112404105,-0.36854143901192415,-0.8065725071591885,0.20994193967010233,-1.1381095460047206,0.09202174129558038,-0.017270219443534796,0.6805604690206764,-2.5397906260782293,0.17200082826775365,-0.9400233051304099,0.4227594295031718,-0.0010204382883423069,0.676084999789559,-1.3110857374371392,0.8229227366765457,0.024674888442110188,-0.006948407341214435,0.053154428632772976,-0.023958988901825906,0.027034942826169583,0.2097131589614527,-0.17341171686620882,-0.02432292557871385,0.0632950674917061,0.1400278911017372,0.007972159704831228,0.4185503270397959,-0.22591651859835338,0.09112352675488822,-0.07442179614970712,0.10383543727005495,-0.08346825894486898,-0.009420386181014373,-0.09058280006766584,-0.02977954484615264,-0.01782118917806952,0.03199132437181618,-0.021254320849006803,0.06799784711705303,0.06180843720352813,0.11668732619061561,0.03550730125068213,0.14775266636076356,1.7404183895639562,-4.5104590327006235,4.810984787330199,-2.0305565739657254,1.323917015356031,-1.6205238671946773,1.6598560024739157,-0.15208834714894692,-0.430395262792004,0.11915564653919475,-0.4003933681109686,0.057178381997245786,0.19107684690062854,0.31460440852605487,-0.8690415541963148,0.12002408688459099,-0.4086135625589655,0.27376785892705335,-0.0015956908487553267,0.4904177566196388,-1.191354363703141,0.6660542106910583,0.025400907767483716,-0.005826440428624791,0.0442215728748776,-0.012795807071360632,0.019143813632407358,0.3366215239390993,-0.24067330852876978,-0.028556863857470915,0.055250831012060964,0.1712701650609727,0.022418062704311126,0.3881818054875339,-0.14814354085079273,0.0968863274755094,-0.2001902583159776,0.3189568685819424,-0.06655048696504728,-0.01634955719168185,-0.07631705812571621,-0.022586667466679256,-0.01255485297198522,0.054708369724210115,-0.023978571151808126,0.06656738666025142,0.06030498524789074,0.11825345177871593,0.15939634449694484,0.13466474281801055
