0.004785991048882332,5.557487548680899e-05,0.0038607951340284274,-0.01905929236453474,-0.0009475369567236991,-0.0010969058242677465,0.009160335052455615,-0.004092918128860867,-0.0009744965496057689,0.0021904409751655335,-0.0041719434843033865,-0.00035333718939999786,0.0016348581815899543,-0.0029153516063327445,0.0033630572963091465,-0.006685003730337258,0.006069054846355337,0.0003931318560589647,-0.0003579126163726423,0.0023083206036018655,-0.0016974474228641512,-0.0002818280582706778,-2.0248534019417716e-05,0.0012501471547426424,0.0008570599850503957,-1.8467877779038133e-05,-0.0001595148986451439,0.00041142213419904233,0.0008939627487245527,0.0007845921383011767,-0.0025066878512127883,0.003280869910635531,-0.005235246061447429,0.0011238051001851157,0.0021437504299496313,-0.0005754185335555412,-0.00041987047713056697,-0.0022194613334401148,0.004309376754937366,0.00175036765852421,0.0005535800210421868,6.346645308042201e-05,-0.0010920778532585163,0.00348043588643715,0.002910555009108834,-0.0012603404805976437,0.0003405751514135788,-0.005924535885559801,-0.0012218617280223415,0.000762876399954121,0.003952863713916899,5.287084288522863e-05,0.0029813955186080987,-0.01314932738328256,-0.0013082214876347087,-0.0011561035208761672,0.0072668094684587015,-0.004132819513979313,-0.0009726447107123726,0.002155203725169086,-0.004330221975763382,-0.00041333590055901703,0.0015750383091512887,-0.0030755349413049138,0.0034068428563663322,-0.006900103608745711,0.005465320833282494,0.0003626218046883234,-0.0003866651405022674,0.0026905857390179255,-0.0018053899635932513,-0.00025211867232338703,-1.9484569170388072e-05,0.0012529580717848265,0.0007808406098075427,-1.7610277356361337e-05,-0.00014783978155659752,0.0003927162639644696,0.0009311951489570092,0.000703965894055969,-0.002717052095002309,0.003125377580413924,-0.005506737113466054,0.0011276325305987767,0.0022328949483286786,-0.0005862020164942722,-0.0004567036156902099,-0.002096226970909054,0.004276707104765576,0.001796452251313585,0.0005358391414140712,5.926876352108524e-05,-0.000982991462573246,0.002972324109469404,0.003124086824091765,-0.0013225587375094716,0.0003208747150933791,-0.005868071466397395,-0.001113059684194992,0.0008658315157139551
-0.0005997774220458663,0.0008327877835379305,2.1618891359595667e-05,-0.002913322336742935,0.008186575922205397,-0.0015275568852834986,0.00010565840737951186,-0.013787367229093128,0.01023060946745935,0.002560740111468146,0.001081986226573961,-0.0002572741218826169,0.0016659375739344062,-5.198456154798664e-05,-0.0052836913377505845,-0.0010995266363345163,-0.000547601502987563,0.009769642523184907,0.0004647550138249523,-0.0022847767858446,0.0002631888797850132,0.007719205207838975,0.0010785963294497464,-0.0023182140942151763,0.0007893086532703153,-0.0002828560779764358,0.00059386948224565,-4.3451156921947565e-06,0.002744509780481033,-0.0013240327285366366,-0.0017338085400360193,0.003667123370312414,0.0004842442178963624,0.0009432251670778435,0.0010162103702646696,5.952735733045708e-05,-0.0015606065403264702,0.0006255569401376199,0.002744889817130336,-0.0060126912847359715,-1.873286154697052e-06,0.0005327263818779571,0.0009380332011346415,0.0009718016635760635,-0.0003036358038630699,0.0005087177421009836,0.0006270578263414817,0.0005965521746254671,0.0003418833042447521,0.0012209712573114512,-0.0006785775017992268,0.0011753176517740188,2.3363061360298556e-05,-0.0034538819227566964,0.0057865218576166055,-0.0017678204607451953,0.00012123590437390554,-0.010894515750293099,0.009947815987888964,0.0022641825365751073,0.0010142158470477503,-0.00027809876375059495,0.0019111574887610283,-5.131806891292556e-05,-0.004875752586169679,-0.0012175605451000826,-0.0006193795669628063,0.00943327750021905,0.000437458664233184,-0.002272800093886862,0.0002710518369605508,0.008622878507889009,0.0011666050199069938,-0.002407105166466472,0.0008203861462853235,-0.0002939238119551435,0.000604780519066761,-4.110843516556828e-06,0.0023499434043078304,-0.0012645712806131776,-0.0018453460710379233,0.0033085740721639223,0.00046522788942265914,0.0010296967809529795,0.0010719831855453,6.563189120461707e-05,-0.0014403671034510235,0.0005534924153373019,0.0027397264267457755,-0.005801843810069152,-1.8749764868291295e-06,0.000527514179511579,0.0010857945685817938,0.0010352515138309232,-0.0003290481149235275,0.0005374862629746735,0.000604659107951086,0.0005535734057202785,0.0003290793377313042,0.001363312185424348
-0.00019917433983257515,-0.005787189753228006,0.019836896586761243,-0.010531060072871412,0.012067436105316354,-0.011946671369950757,-0.0007764158431386864,-0.002894308800144574,-0.0003907879539424841,-0.0005081245841324633,-0.0006797995608935625,0.001878654796070578,0.0003722959601190623,-0.0012944629000140317,-0.0003788154238654369,0.003974079584912749,0.001018467330274886,0.0023519182546387074,-0.0005708242061205383,0.0007686720132605504,0.002738583913465889,0.0017599352015281317,-0.007835053988618501,-0.0004378474235416513,0.0003490802437160351,0.0016834547980086878,-0.004652586740787751,-0.003654309564378455,0.0011743155580253711,-0.0031074976886602546,0.0013589349722199495,0.007156349261463468,-0.01893048398300179,-0.0029780544117290475,-0.003743030959477839,-0.005538955582903515,1.0286537252754413e-05,0.0008962969907222729,-0.0010234040933472244,-0.002892801475554152,0.005463458912704944,0.008302838793146972,-0.0022389740391748902,-0.0004180538630558367,-0.00032292150157878577,0.004925767895647248,-0.0002850336375207624,0.0028853782458074517,-0.0005975592178858458,0.006506164065523623,-0.0002457706189022968,-0.004032020428800687,0.015079801894790634,-0.009639280408392903,0.008902326816728756,-0.008664509567261724,-0.0010101401435329005,-0.00252942482305174,-0.00034523371277905834,-0.000548422584475794,-0.0005634479031623174,0.0018147980512824013,0.00033195320268597506,-0.0014987025230334128,-0.00041916491108752105,0.004656826546769743,0.0011799884834673424,0.002196048921707633,-0.0005720330189737388,0.0008356280898785401,0.0030070266496728254,0.0018158540045304233,-0.007080597151210011,-0.0005353455243662167,0.00034871774488495766,0.001447673348067724,-0.004290453009964501,-0.004131375375694912,0.0012936499933103793,-0.0035463555756380938,0.001542914564429898,0.0055434231006017964,-0.016660403160120518,-0.003196666652790725,-0.0032189052776364357,-0.006002861012901928,9.419062730504912e-06,0.0010696839511048772,-0.0011056773821236376,-0.0033016899563864666,0.005459000510587897,0.007686374856292866,-0.0018907267361419067,-0.0004067919322190555,-0.0003133958305173781,0.00476726954167872,-0.000289831572600166,0.0025325264952849036,-0.000513942997993122,0.007131212341313586
-0.0006674822929692431,-0.017143979547443067,0.030017853152126017,0.000261833269798617,0.004395598896746011,-0.000360268945445337,0.00021235983477571954,-0.0011284050406682455,-0.0021980119519025287,6.161245134485294e-05,8.283934531080894e-05,-3.362815408368891e-05,0.0030431379603926834,0.0002371860162108802,-0.005213900243084657,-0.000640415874809952,-0.002807677314047144,3.7908656409661994e-05,0.0013261470230233746,0.002491819939688944,-0.0014871474980005794,0.00870550093076794,0.0013670338316770225,-0.000725670140787428,0.0033516247261328735,-0.0013077130351273614,-0.0012690029254134316,0.0019153933220308894,0.00039852929159994027,0.0008184230431820816,-0.0030161363022237764,-0.0017755726856390486,0.003208407774669547,0.004099938162993116,-0.0014145765289963474,0.000572497972953348,0.0007377698218678508,-0.00169556446468766,-0.00017337154436458495,-0.0038928084395734586,0.000635570410910169,0.0002370988550954127,-0.0014260411124630834,-0.0005410766046058252,-0.001768437164885589,-0.0013823814147749525,0.0003912682752874319,0.01549454226257474,0.0027530528242028507,-0.0009805180168457606,-0.0007077986997734084,-0.01377501533694625,0.025161307095479146,0.00030096723743035236,0.0035636237563102524,-0.00031484108691691784,0.0002401040322493539,-0.0008930975536945718,-0.002324593682890036,6.532090894655063e-05,8.758063222846779e-05,-3.687845571794185e-05,0.004049592587658246,0.00027141921087275866,-0.0049598239766306396,-0.0007444543911429985,-0.002355332654224246,4.316181100522988e-05,0.0014300590291723564,0.002277188445916317,-0.00164270879187281,0.008499593449816878,0.0014281245344598403,-0.000772420836873261,0.0033726142984247254,-0.0010879704837908066,-0.0013398141193933788,0.0019669003767062154,0.0004105886406694584,0.0009946141789304516,-0.0028704060336599835,-0.0019954412290465046,0.003529545522434896,0.0040289975519533505,-0.001243175333952573,0.0004945955952233294,0.0008156260189596531,-0.0016642070623348049,-0.00018935966228498906,-0.0038923974633758296,0.000637867607900855,0.0002356493820139978,-0.0014018086678766473,-0.0005395228339358654,-0.0016921970560482835,-0.0013219677685617492,0.00034929577715293175,0.014996017567668218,0.0028365600023666504,-0.0009021766668050324
