367.8832364866539,-366.86227986011363,402.21845776270493,-471.9234163011424,252.6027634016209,-287.6659141458549,104.04789392301609,0.6523528716654567,-175.62664262813814,261.92613711000376,-152.43387457428798,48.590767516720916,-29.493836878682487,14.057265127508458,-36.71686314046906,19.381022134816703,-0.5950801580735643,1.884357518976742,-9.203569746004632,9.975184504493654,-5.309256216213981,-1.0124744720558567,-0.636671863415117,3.4994113248159806,0.005955800556478152,0.3879461884083213,1.2953351719854567,0.0849544752081357,3.781931026175016,-0.9845176370530737,0.6693202364401145,0.0321761625314565,-2.074737709242413,0.12622598359189396,-0.6695773271397769,-0.39397186326461053,0.005283148760270251,0.0012161276278710442,-0.14713341920310263,1.8153011160869426,1.513535056398382,0.05020665014157544,-1.295249131334856,2.6285157090223947,0.18025891838778918,-0.721942809423723,0.7661064713188637,-4.460555290073671,-0.5562076451573432,-2.68122549923271,14.026420644416703,10.33056093359869,9.332100525186661,7.472238889836262,-2.732913847557654,-38.8622058520923,22.775164954429783,0.25151088876792826,3.0884752124007377,7.019649858509638,-15.165912413936894,3.5136487541504096,0.4709474635289723,4.7984491926110024,-1.9600160518605207,-3.8267261061294278,-0.36652859323161735,1.6577912437174263,-3.040566470143517,7.650024448555655,-4.865975941229408,-0.8555802159916226,-0.6140169522364403,3.4930253221028806,-0.041607622707090286,0.5749709807457037,1.4915300469729686,0.21739478120855438,-2.0960787640733543,-0.1389223186741546,0.19547207769400643,0.20885464882213967,-1.6316823393973436,0.037350702475549724,-0.837271946608368,-1.1059223634223514,0.013949003842128604,0.16253660384603563,-1.1937901616603597,1.2055256196246233,2.700788996781341,0.5520354349494028,-0.3179939622961321,0.67348829419646,2.9856057278215644,-3.5157389143543014,0.4973088343521255,-7.670062678192949,-0.17405026498535392,-1.857484541386043
332.13259748426935,-401.2369512475634,378.27286980982535,-405.2012829414016,396.75455995716766,-269.9056565387582,32.9393049506034,8.808197577967576,-230.7533925849384,277.9169629144508,-57.380052820615674,2.3206087242175784,-25.610883559903414,29.674264625532487,-52.877747295927065,23.855134640268943,-7.407978854041744,23.926280062572914,-12.243001835655605,-0.4089723093624187,-0.26142947551318585,6.704588006516019,-0.43066795051988294,2.6036378338752684,-0.40097144313718047,-0.46442613971965585,1.7506599823152982,-2.0519706934895794,0.3295747732578125,-2.7489942973360826,0.9447348156542716,2.2063032576841124,-0.8390687160533403,0.26804009472844825,0.050573443012639885,-0.28141708833016565,-1.614769144701782,1.0971994845197486,0.06912795492226564,-0.11657321726417091,1.2061516043567622,-0.1367441288454927,0.1477714007013109,3.71180435302756,0.027499606101707652,0.3381810201550728,0.37498847820068804,0.41228286442316175,1.2876862122321526,-2.6908023893512336,10.665733704077809,44.79637086229013,-33.95690450112352,7.063062704640629,-72.62582430914517,53.74252557548607,-0.8023696915665823,2.89102308971826,20.88770550514596,-0.12068744184537294,14.320625201830126,4.39341799496799,4.263848558623749,0.20500530857204424,8.599838888650083,0.9345750346826236,1.6110861646778005,-3.2425334731215116,-2.6226916665511624,-0.074097781141095,1.0783701168046775,0.050825814900083977,1.6932738114348922,-0.7463359304070423,-0.09016944357078494,-1.522638425629225,4.035137242678758,-4.092824967786839,0.49664016941820677,-2.575020948979443,1.5683894949926867,0.5729215862131909,-0.010448655288899045,0.37016728097677287,0.3987949981574559,-1.2429254442311475,0.23495691232866456,-0.379792714720244,0.003658554479621934,0.04647673637576011,2.901486637850894,0.018002480906103457,0.7438087153998652,-2.1925248326790268,0.4636232969473042,1.1952097477135553,0.19203263326924436,0.2237712601064743,-0.04167777915360493,7.775080902732157
232.12051216879627,-409.38494732352956,452.1871598328289,-442.5083999309063,368.8218698068904,-270.0044473839007,0.8476512916367369,27.875823879601057,-208.1962519220324,40.4403825145946,-182.61504278064422,137.90450639990377,-3.4402161320871016,3.625262617023168,-16.215605124420108,48.65932016430793,0.052188078044977715,12.467114038983595,-0.7213889709386336,3.2766882906304318,-1.3240191489919226,5.914792352825771,-9.328978440449191,3.735702210030013,-1.2815448507166707,0.10671713627179713,-1.3355966169081626,-2.617468514517043,-0.007111913126053082,-3.312510838756282,0.5840897850479507,0.8557309125685606,-4.168374195299833,-1.1864231827283334,-0.7869882595790614,0.5363433278335066,-1.84380097076901,-0.307367887207036,-2.6734537951529944,0.2298058518396715,2.4678752586517305,2.1474218392964985,-1.6883871474097418,1.193482280532976,0.4790655529083523,-0.33638785717181463,2.330287699874745,-1.216058491744775,1.901822264055511,-4.892350895513147,23.841686839228714,-1.578965249107405,-22.14283047730987,21.60887643261458,2.5651831899858166,4.7398004128164075,-2.181675136583465,3.831892490590917,16.078160950225765,4.82103295827261,9.838635673754084,9.437758347762156,-1.3720763571715366,-1.5157850265357382,-8.72988160754062,14.038146460155076,0.033057992108126655,1.5800872720115393,-0.27901516838365836,0.7653009150783134,-2.677896152363644,1.0072731632210008,3.7270666434138775,2.590289322368335,1.6557490258051644,-0.01802507748970683,-1.1058982653521525,-3.0301823726881594,-0.0853191449748465,-3.4949119893943816,1.2273003168399157,-0.5733399723527839,-0.18533705194053596,0.3529378209756828,0.4963318625525943,0.4744309369436266,-3.3649225893272785,-0.08578963827741504,-6.365600510062279,1.0945683569115658,-4.060749504411348,7.0907875447064725,-1.2502926863014494,3.3100756844180523,-0.27255252565404575,-0.579294024115768,5.038114949292719,-3.1194164994142284,2.2675500702943054,-2.903759877737002
264.86809783671924,-446.738569061381,477.15280496493506,-322.07350323818173,324.21335525224276,-172.16892357141478,39.05997957618183,15.63853987537368,-157.72811155123054,85.08100362369623,-135.12383771096756,5.514540168452527,-0.008202945558870578,71.8071341838704,-63.673128494625416,33.38742243265642,-18.51093639795829,6.0750739692161915,-3.286118242125667,6.834386145813085,-23.975356367140648,13.67769168718496,-1.8503141270733465,4.14652592863888,-2.7794465129133528,1.5965014326757654,-1.7131630385748053,-2.977488592271584,4.950437517904845,0.7401048856181518,-2.225446101813489,-1.704476449567423,0.11559586766152918,1.184570993677596,0.09109364281443177,-1.5078375976935376,0.36080501047874414,-0.768099640819969,1.9052899387792621,1.461255846214371,3.7614472733648654,0.9015744981960268,-5.3772217223067855,-1.0313457702391915,1.1272916003370739,-1.745412456780997,-0.8368432519441953,-2.8367008961915303,0.20264789473355194,-15.20268937929768,27.270804039784707,-50.0599820123216,2.6066497054271167,-1.9242426727657715,-31.27577250919785,-13.315101319076348,13.053025456783303,-1.054364307593886,-30.885341360291022,11.364910626551818,-7.913903358659411,1.9400376253660454,-0.13569662482476375,1.1203970383883899,-2.821716966270401,3.2401712559966427,-3.2288110600572395,3.0729880668059195,-2.2240803214262996,4.275057535961196,-16.76166294263976,7.877533585540277,0.30833247756219606,0.22511992862965524,-1.3263544767319786,-0.5315278697843624,1.25745713534846,-6.095050407078361,7.738795640459671,-1.8827679850927268,1.744202411570626,-3.47208548727545,3.8480777138951225,1.7985408068258835,0.2375491275439785,-4.375140593094784,5.093854041418695,-10.227097502411198,4.63837912405296,-5.465279867848949,7.492898766002327,-3.069211229036,3.0471628548189074,-7.768788870457968,5.619866510110114,-5.709515239155536,0.47108640590947104,-1.4812294471367693,-0.4284108189621634,-12.03142154926104
