2.82870820259177,-2.2382887888834375,3.1951616784565147,-5.115176963771546,0.6877211282481959,-2.6347324691460017,1.8960057652956834,-0.043536877110621486,-0.26573420072081433,0.9270666933286975,-0.7884194254456531,0.07829272925856401,-0.08748953136961202,0.09608336474946633,-0.5324264908282004,0.1881419304604517,-0.014191447298729898,0.032525783649972606,-0.1501747480087019,0.2456133200111843,-0.12128585150811855,-0.01333916228961396,-0.009579998621895291,0.08160201002566136,-0.007180679076518648,0.013948841900252695,0.0062385046738706595,0.008868533308343918,0.02060290881058613,0.010923175949983488,-0.039154818204947706,0.0031344119614516996,-0.13746347164622463,0.016049897816007963,-0.014084743016784973,-0.007109578633380131,-0.01094136086892794,0.004966214573007055,-0.02981057762626449,0.09095623729926672,0.0061086330341099115,0.0018971691056561685,-0.019271618763212484,0.07690492449185626,0.01914986392010043,-0.0178411795044493,0.004523813794063136,-0.08627042066128077,-0.0389058279440857,0.01254134460752554,0.4709573801134468,-0.30007139995592524,0.5416218677140705,-0.5720674569415962,0.20580123506477577,-0.7034451621348126,0.5313588741313708,-0.0391084137553932,-0.1413554502828589,0.40454136051081235,-0.36831685688279237,0.06161436925160846,-0.06117723714023082,0.0765397135314636,-0.3094127568781957,0.12328080431862531,-0.01669229923433413,0.026451722411868772,-0.09802439275884822,0.22665267073861628,-0.13007576546294963,-0.010675592900012632,-0.010925830058045927,0.09792375261577124,-0.009053960483115686,0.016223575839931836,0.005533342117074347,0.01122760830568903,0.009311381459480739,0.007643291820265574,-0.04306396534355139,0.00491937123828734,-0.12916457002526016,0.0131126664574448,-0.032879083951308674,-0.009191135553011653,-0.013499296803589633,0.0059731668152256945,-0.04242710543685746,0.0861647661291407,0.008006881380871134,0.0030338696504527696,-0.012267772895974138,0.04742332028194518,0.041319095803773465,-0.03261521556753477,0.00416231963050448,-0.1244351979533942,-0.024284899943735616,0.009745271338158834
1.1464311534465423,-1.9864516333150277,1.626482569124903,-2.484067190193855,3.199941594360837,-2.0673927326095054,0.18164458605044942,-0.07430530424002768,-0.26689547718257245,0.6511911642137562,-0.03491120178600404,0.005281232905373023,-0.02974520710508055,0.08833215291405416,-0.39488964198343623,0.1383927784968897,-0.027274304526137882,0.38189214016785655,-0.12880678914781463,-0.014995668127979922,0.0056614700521211425,0.12938485765033292,0.0025005558436513864,0.027989982888716458,-0.007738032536750927,-0.00019656238378873425,0.023115306346290776,-0.017415557853188157,0.022367609281583878,-0.01820572388319741,-0.013999318480768408,0.08540558519139552,-0.025334508801046596,0.016532276233098386,-0.0009944661502493887,-0.0002875997965867544,-0.025167504673799357,0.008866659122630738,-0.0094249335873281,-0.012164747048279134,0.001565977012463346,-0.013209442904296709,-0.004836966052529923,0.05678618022194648,-0.0033552695079469563,0.013563807656493676,0.0015511556423170036,0.022262886386553715,0.010431021744298774,0.015670056480609595,0.14588694737614105,-0.059352358712152053,-0.03172642107265755,-0.16979279701274663,-0.12702627649938325,0.009028663421455363,0.05017495740553102,-0.03298702082436433,-0.1712604850982835,0.35183881159860064,-0.017995276110794878,0.02998882894523458,-0.025314759834137335,0.05005775171098126,-0.18310946748005552,0.0933877167087056,-0.025646373900857,0.21287481947932285,-0.0809410385220044,-0.015225181571386415,0.009108286404145183,0.09891206550872056,0.005409137202475045,0.019150621410948476,-0.008498947092787812,-0.0002922315774867776,0.03358302533477442,-0.025865565214077124,0.021170506079355444,-0.018154881087340424,-0.0170308335183883,0.06328115222811626,-0.022765625099496423,0.023277191545142628,-0.0019428494042230404,-0.00045093758052647953,-0.01851454650345641,0.005488459565543169,-0.007920600334204109,-0.016141830121467526,0.0022248195193252385,-0.013934806055748705,-0.011493809009170963,0.02825200244892656,-0.006790511743236527,0.01909906955257057,0.00046221060729173535,0.016117064599958653,0.004680572716905251,0.05572646549219762
0.6506414562622922,-3.248751690558038,5.40711942019243,-4.864069004382316,3.8462433241844565,-3.4796981336701265,-0.011548832036737178,-0.003916703101847219,-0.47814500328823684,0.008102310096564924,-0.6054101580455438,0.725098545173644,-0.011554326853705277,-0.0027238227072762244,-0.08911754044831888,0.5052147042004407,0.0037246629394072084,0.15127607522863684,-0.010333483870469728,0.05440316152153635,-0.009146132022410658,0.08025039420325442,-0.3155497231545965,0.054899093447156044,0.006785711498654423,0.020863788931764105,-0.06508182141482965,-0.026889991047636452,0.005515387339361411,-0.06465871376634436,0.014231201184796705,0.10473055551287302,-0.31832302944818736,-0.0032243528456474824,-0.06643880637511268,-0.010070389803914837,-0.056403470045354176,-0.0008199150961629154,-0.1213673061312921,-0.002543473370412608,0.030979814963822294,0.1611823491173041,-0.14435878060319496,0.010010383412115353,0.006546870510533709,0.025784907675779678,0.002527758590789464,0.011896002747349144,-0.02777603165399034,0.019661581055777422,0.189711917078057,-0.37903468982977984,0.5461257041677072,-0.3635231468480242,0.5198813399108388,-0.5666132480587862,-0.04202219879194935,-0.002602996095990018,-0.12435190277582553,0.013067502877008419,-0.1351611131031385,0.25657564924931364,-0.012231376308104114,-0.01641003003606223,-0.07189564714669539,0.3093372796620919,0.0039508949738590315,0.06976446479278309,-0.0064597789486825485,0.03558356573320687,-0.019472931193016407,0.04114629868218511,-0.1193108278194881,0.053871365620017375,0.027676772115370785,0.011567042410291384,-0.057955210769995436,-0.05278214506063117,0.013007424811011248,-0.09847459145385784,0.02355139501851289,0.028757342650926887,-0.17648750378211275,-0.006229649985798114,-0.037140977857268,-0.029975198822554727,-0.06653470027007113,-0.0011561714003083257,-0.15544210668968717,-0.005122877039107188,0.011633210720437714,0.17814838853451676,-0.09027354851844294,0.01133542527359288,0.005501536894096548,0.03182854966401738,0.003061533507002334,0.017394228201602857,-0.027390861209027673,0.023439575193944684
2.098586064036539,-6.469152876140015,7.422209064438391,-2.551849644954359,3.613939469796833,-1.9245290726659334,1.2012569557074642,-0.152029035608658,-0.24308749291083487,0.04624467249306363,-0.30159797007431877,0.01608159545034793,0.0051997534626474495,0.19263380861730184,-0.8828422348251479,0.05516626788311818,-0.28769980621693136,0.11467754107292194,-0.005734075702473085,0.2290545049485182,-0.4392450570054507,0.2864387981148653,0.008657664982282709,-0.002368929161044031,0.024316105504842644,-0.007425784199170948,0.002682672872960118,0.07565585595864377,-0.039967545185767506,-0.005752909960619168,0.0250232717135761,0.03413719424180872,0.007466122348404269,0.16234770378140517,-0.07975689553244791,0.03202392267366383,-0.022801188192307364,0.03515190979103178,-0.03001272536516386,0.0018216898403565773,-0.030700152801438563,-0.007234295071297914,-0.01568763470329626,0.004604045571718007,-0.006315864694114048,0.01749668051783626,0.01688320883260208,0.07078042204699919,0.019148167918706882,0.024982302729742667,0.615545698065759,-1.8178259742971363,2.0023734289072053,-0.701901265826919,0.560381883547393,-0.5465827357485296,0.5483488024342122,-0.06755064678638956,-0.16258166849328148,0.03513429215109287,-0.14186839846130894,0.014607458739335222,0.05797383859649452,0.11272899031103734,-0.36829945674599784,0.04615165092296891,-0.1413605485051761,0.08138235269521665,-0.008130572296939143,0.17783237140859498,-0.42869119198201133,0.2439815390883382,0.009154805718434411,-0.0022354537824667564,0.020493188929487482,-0.004274857057476378,0.0020446895786608438,0.1165365621609169,-0.055591240785490825,-0.007651771358167636,0.024822867294095552,0.04198338131022972,0.012302219700703887,0.15316480290898937,-0.05578302249685407,0.03108575675157299,-0.05634734474352143,0.0929379227536824,-0.022716285574131412,0.0034720126258374062,-0.026552076821515946,-0.005273101992168683,-0.012057607805619486,0.007483681744284709,-0.007095099462269383,0.01790469527352201,0.01624318686843651,0.07442690634666782,0.04587805579792814,0.022521914633321538
