287.7068578583203,-284.87163814275846,317.82286716754606,-377.83907812129837,190.25993853379623,-228.93599982880914,91.43641759676393,0.3226423575863109,-93.94232047607875,164.0930381908547,-111.09312646002945,40.550873494280495,-29.938711681873883,15.088586972107123,-43.08591839355222,21.09798511904046,-0.8148960046235914,2.2407156882813695,-12.284642042896223,12.756253496207592,-6.755965493512122,-0.17219609356889265,-1.7075270059802818,4.553531244690191,0.004527044688718007,0.8550428696758701,0.3556473955140831,0.3426397888532762,2.1463532883181102,-0.5204407471384087,0.37716823025046864,0.12495905740345314,-2.0472486714068054,0.2179328764004822,-0.7737332953730913,-0.42434337519055987,0.019281021830565237,0.030481889130200557,-0.3325032062240325,1.932465628211844,1.0172145203730665,0.057956691994285325,-1.2358641427404535,2.31530101884033,0.20574915071491695,-0.605268229588944,0.5126481111055554,-2.750424645860079,-0.6850090356708627,-1.3652656280954858,12.949762697609003,2.9753868795601335,11.199583613554125,1.376593930851783,3.5776640972928817,-33.33079092951721,19.364746308652684,0.27622047132330607,-1.3294742405688424,8.998700340423966,-14.28012702407932,4.003724396496324,-1.2283596283595841,5.567078112278921,-4.790417224519842,-1.7546317537819505,-0.4001998511756355,1.6643032689081139,-4.096908005359808,8.483734096750709,-5.4919757159505025,-0.14909700773241497,-1.616213206941751,4.433012185631185,0.03145718169022871,1.2041995392445983,0.4067151462159444,0.7710316365755432,-1.1414056084651918,-0.10270510385130649,0.13544568918852917,0.7283078931211406,-1.8073219763891757,0.07695685174076061,-1.1586914274847118,-0.9445468929107648,0.034482983011017154,0.09735924036834831,-1.0351825947630005,1.4199390336768403,1.6411487241136768,0.6303351659603926,-0.4712123978941847,0.8327927866016296,2.3256259727572797,-2.5515045735429567,0.3745689492282054,-5.408419278882803,-0.2550551582639802,-0.9396643896081045
240.14684027375188,-296.2885990975574,281.45296512168716,-303.7661481481955,305.4312022914928,-212.25533384978917,27.880310989563668,3.3148437865538654,-123.61245720696752,163.58824484153774,-33.476920628643256,1.5856755819340194,-19.53525375502886,28.265045068879772,-56.51145404833642,25.247739929320232,-8.664627573068287,28.138577343027237,-15.462334337975108,-0.17915483443561087,-0.35580108965061186,8.190056040732998,-0.29029486719072395,3.3980784506866257,-1.5781987208209785,-0.20854991229208153,0.9696930034017157,-1.0111323322901171,0.15872120419691882,-1.3430424944864683,0.36770436262802164,2.727614997415344,-0.7960367063601055,0.6358094482136778,-0.02780348953139722,-0.1797900919107498,-1.399187946416525,1.09830599329905,-0.29918658610393756,-0.033703578313042826,0.5800780128993921,-0.10339670967833214,-0.024070472024275702,2.731910345633821,0.02647815705623735,0.316979793146853,0.17781614605212326,0.414500819949879,0.8997335059960108,-1.6461730097176428,-0.011312102246685551,34.30113453447666,-35.28145290813609,15.249795524261685,-61.38424720724288,46.48565376144461,-1.4203355995617528,2.1831719254068958,-0.9122156423459273,15.08057558871451,4.741547058285732,3.3056613453351247,0.7846850523893636,3.0884608326041416,2.883173025891182,3.138013646434729,0.7257115198187307,-0.6270934147290959,-3.839913041017269,-0.028678113480782974,0.7793906470719207,0.9239952860099407,1.3895082916691308,-0.6585153898601703,-0.4162977276536779,-0.6501235883731056,2.375464289518945,-2.1897480836498744,0.19240098701094777,-1.3953355640342977,0.6126797710215968,0.9190364611619373,-0.07631497728374903,0.8212090593537624,-0.13211263139414342,-0.6286797670935727,-0.03357047373505995,-0.2365393341745481,-0.05649541313552975,-0.00907582809965235,1.2180405043348514,-0.0915573315810505,-0.0962760091712056,-1.173640674087153,0.24192018530627024,0.9209493529797328,0.0724154993513082,0.2407779687593603,-0.006864178424039302,5.438008440524527
163.9571777012752,-314.70831944646125,364.4149435508007,-349.7893728416311,286.1949164632824,-208.23118312225597,0.6250837668575002,12.901685401149734,-115.88160836348834,19.415540985996017,-131.69358233129606,115.37331583249397,-3.1233342430699054,3.9223914738745407,-18.248319922959126,55.12524888692519,-0.0036027205741078205,15.921392701251534,-1.5155085444607295,4.428595153673541,-1.7643221976962167,7.78305190736171,-14.610670937429404,5.9827046315344035,-1.7843896732165376,0.41794813186002955,-2.203558044180511,-1.14718819659781,-0.08417590111581674,-1.7103925512631974,-0.2426008941243225,1.7585792520518027,-6.027003043444097,-0.5579101435073852,-1.0418561536886415,0.6072858556549221,-2.538330445020847,-0.2656705523052505,-3.443163053340186,0.34962134556440816,1.3809867603304156,2.9154685459124465,-3.1282336996055733,1.396916965644074,0.4111110342341817,-0.17719211338203422,1.2963450106516348,-0.6942932112565359,0.9267259475485616,-2.5261272732280418,15.54467623371238,-4.979071206001834,-11.01554154662199,19.31283143623432,0.7421154481079384,0.8222166197172172,-2.0406943770064743,2.296377168592244,10.25802509856544,3.725581208372404,8.877775119972284,6.4057270363883845,-0.9958255712838593,-1.8482612218335817,-7.904656563007848,12.084105667051745,-0.00285021017476339,1.5057237040325049,-0.5383670617749381,0.8205380953952499,-3.108852157471489,1.1424185360527588,4.183608031640063,3.623417862217906,2.221363296464915,-0.002266959454418571,-1.2246261105100018,-2.0323442154521842,-0.6502051369892285,-2.40826269749482,-0.49070002592520723,-0.8515185245626,-0.13382133313351652,-0.004156403655616314,0.32186494016065836,-0.06696803287394193,-4.1552769371880345,-0.20549444198003286,-6.8147353093206675,1.5945208567973168,-2.0153036572074257,6.4843747295885805,-1.8767532816765993,3.3814448900530323,0.0020943245604387872,-0.2926990052014844,3.134931887002409,-1.954719964976448,1.0884131459652053,-1.7320337578534009
208.4161973318769,-365.8620013385844,392.60051870277675,-255.18501953734085,262.59038942924235,-146.63849922474765,41.280611620620675,5.41235827461071,-75.02069244429003,36.770724986502046,-78.11877598269348,4.023661509004796,-0.06494355437918475,58.79044435755759,-60.505120285954035,27.50198213421845,-20.214318810293662,7.140608737805962,-2.809403348361272,8.446142072882253,-27.634928794013376,16.62335653372793,-1.2990510100798929,3.7700404110230465,-2.4515908195061513,1.3868105402684705,-1.6849225502402305,-0.8070535928752527,1.7205064731576556,0.7398371222060263,-2.0109658201124034,-0.3524017350681028,-0.041087623743473856,1.7817709556464933,-0.3437929325657123,-0.6012283391483493,0.06783911345805471,-0.20768003561768822,0.5919031544127975,1.7155412927050975,1.6719163147631093,0.8335177865218313,-4.126575157381296,-0.7389229439763056,0.6893081900481377,-0.9311411529949964,-0.8861016673911948,-0.9049653815775969,-0.05832172190177687,-7.785354335300326,24.72390198141761,-45.1365242993661,17.133243252824514,-8.545911576282379,-20.275473963811237,-12.498249269660846,12.490563266620143,0.2703343616014564,-19.58384777088122,8.049074275527914,-10.097928791648656,1.2491032099947574,0.39892156406978785,6.271252803472407,-7.166846475740158,5.725729148128494,-4.563480839786848,3.552185499643798,-2.5161359299055874,5.134760860255085,-19.28464732219959,10.030832183883831,-0.19467213494290903,0.664075964786349,-1.2360335561960767,0.004920209845314383,0.20428030749850024,-1.7687683456188523,2.866349832109023,-0.4527815969676041,0.23644279517149513,-0.6781791499245067,1.402146796292982,2.370032059951228,-0.6391673346701126,-1.6465298231257748,1.8785033815987617,-4.80589721093304,1.4182486163980883,-2.4620006274732873,3.116275302084034,-1.0530601863743527,1.0476755683309165,-3.961104205279412,2.569715603523264,-2.435384046558795,-0.2581244457748433,-0.43830515496276234,0.18815545152975055,-6.44182110192537
