19.745431768796152,-17.83247407955878,22.807130938612772,-31.373688755415515,9.569849642180486,-19.21674903184112,11.722380028616726,0.02865104635258975,-2.385716235047113,6.8338080042938145,-5.356793680976068,1.2197333525741243,-1.2712695597438142,0.7745494941928897,-3.7678041731828102,1.36422792097909,-0.13083850188311263,0.25702843448623724,-1.0751460460343765,1.5475747931554196,-0.8530168113392591,-0.09213300404590008,-0.049878567055725576,0.37492743272522233,-0.04659104639167744,0.04689628719474115,0.057746557419108946,0.019660683375716692,0.05201176912516292,0.06978958571722593,-0.13814143612926255,-0.008442881512680245,-0.3693498953840191,0.1183565586383235,-0.04513259395921132,-0.020550910521961896,-0.07894873797782154,0.054157858626169286,-0.15742500821055216,0.2941575076359655,0.024194988613857937,0.006332734527170203,-0.09797323293996207,0.2694926611667654,0.02908207929542117,-0.028505100061126942,-0.010566510055040279,-0.26101732205592754,-0.06504700009281184,0.13376434072216625,1.972979036251857,-0.9880237052252596,2.399354466938533,-1.7664893614852986,1.446810156103524,-3.8984187441191125,2.684306637073746,0.03331288777976571,-0.7523296194458666,1.7447800195851642,-1.6795420212615113,0.5177013245235109,-0.4857046361939865,0.4357166251376956,-1.339839687621378,0.3532884044461966,-0.14030941383383588,0.21391941715483753,-0.5579323596482411,1.2246145432836641,-0.8226250089877603,-0.06908610329998233,-0.05108861085041827,0.39798662475577373,-0.07787602943629679,0.05310724788254717,0.049019871047046415,0.02608601924168319,0.014503788975751664,0.04924196226334843,-0.1596744935280272,-0.013768485463039326,-0.2893720443091574,0.10803089249599296,-0.06578085850273752,-0.04027206827878871,-0.13811114218477094,0.09969313945319414,-0.336180851635433,0.2245872536202249,0.04152306831527719,0.010568142168310146,-0.047727729250988116,0.1246014119100245,0.14159306868847565,-0.08062449784422832,-0.010371950539593833,-0.43654823944460475,-0.027724600534081434,0.10362083372603159
13.247346573759273,-19.266495277185868,17.656563364749672,-22.46726609162306,25.530055486156016,-18.07365504053473,2.6737685737193715,0.01609200958823087,-3.0539906345626946,6.099113688225003,-0.5736628844309735,0.04364136972964561,-0.41614696588168165,1.0267789502985352,-3.0750114612195034,1.3682101011469854,-0.36043587202938454,2.3639825646732504,-1.2322034360794305,-0.053921887286248804,0.020869160248526697,0.9017329922336614,0.011193472045454844,0.2584323482412998,-0.12882940146806732,-0.0038027873350441332,0.10661003137736103,-0.07687557126314415,0.055729507030285674,-0.07408650048767118,-0.031075964724506022,0.49983547652703564,-0.1189576089072748,0.12072679421358323,-0.030321282956503826,-0.006685703006446386,-0.14252451766177288,0.07973198484933164,-0.03434086069445619,-0.020683247468813448,0.01662820406940435,-0.05013442425611814,-0.036857757629962684,0.3207902699145393,-0.008968884787291298,0.05554587620825924,0.0012952413641337257,0.09643183695485646,0.07263267957034536,0.011330931230091323,0.4372988367777886,0.9694116059079505,-1.7318857726766623,0.5202019746070334,-3.7759686659812814,2.4229070107243444,0.07499975938172554,0.009243510185059811,-1.237007311154997,2.4100181873130566,-0.1430882359174177,0.21138995103962444,-0.17828091680685798,0.43703753176746574,-0.8455585950032543,0.6228030007508352,-0.1702088300783231,0.800793380916609,-0.5800930407517058,-0.056041143779438585,0.11141589184761269,0.3763269194118877,0.07266410427557046,0.06466216003642167,-0.08959462860322276,-0.008065087402854498,0.19368903536333804,-0.140058136266223,0.055308417284733125,-0.08420649236978583,-0.04347490266537957,0.24251698037510216,-0.08341844394762798,0.14218050899919898,-0.06645452901931126,-0.011927147673601146,-0.08759298407527538,0.02801200159676398,-0.025273408139939946,-0.03333238770735214,0.02723961096732541,-0.06037611152564537,-0.1119202279603062,0.05080083409455982,-0.04092496797489176,0.11426483060733084,0.00046076216853208063,0.08185911118757616,0.021617820723067283,0.3882961245670913
7.718112627304663,-24.242626709747583,33.96662339267459,-31.91005787755512,26.338847904099794,-23.094925014972887,-0.008354100965759725,0.13823892986362907,-3.841511527359785,0.1655558626655722,-5.624895167231102,6.05056820387955,-0.09953100274495164,0.0453920705285471,-0.802981688357363,3.732021431646558,0.0023683173434054794,1.1063849037333569,-0.10681305308146882,0.3941949477531175,-0.09045567790702158,0.589381658149442,-1.819880723846083,0.447780422546451,-0.011092564664707538,0.1183713003424991,-0.28524299555364685,-0.10496824473047361,0.0028401013012979703,-0.23566415470895663,0.0076436457712523165,0.4334193919848133,-1.1677142356522836,-0.0244573881463217,-0.24637158613797894,-0.024659891305180537,-0.297361951992805,-0.024983466760218676,-0.5353338066722912,0.022226095103639487,0.14597890551553228,0.5847420760622271,-0.6970310555802826,0.10638498441491606,0.04685345057988144,0.061430844976706034,0.062458967904632345,0.005781258016638091,-0.0708211200590867,0.0034606080895187574,1.3501374219077746,-1.8942729905932367,1.7443717100345566,-0.25283456031425544,1.7640708760836787,-2.0587128465195406,-0.23744869952735925,0.07032438795156715,-0.1988534102178896,0.17445740189611492,-0.2811931338551261,1.148198002383225,-0.06982557682897239,-0.12895567219521809,-0.5446552825313091,1.5008513835137478,0.00196380651660899,0.29477513783794507,-0.05078672365768444,0.15513430784957283,-0.22889595071432112,0.20530261833112995,-0.14253307426141593,0.37920950115699625,0.18129862704151734,0.032682502111037515,-0.19285897913204142,-0.18507747487294068,0.012563233748359437,-0.3348003290428494,0.016149792785597583,-0.008218638604069683,-0.2681949735650804,-0.02932178124038609,-0.06436084857873503,-0.11184140314169744,-0.43377683566583336,-0.027286699088787003,-0.7927159603013862,0.07002418655061682,-0.04235027747029685,0.7914971381385527,-0.4226013678993539,0.17182135506223517,0.0303170775818411,0.07514960667655757,0.09709914616530568,0.010542818608271887,-0.07692914556059804,0.0037791009347074578
17.359576726564683,-38.85558342144759,43.27426022103373,-21.67369300796372,26.33913414846529,-16.480487768551598,9.443976599877487,-0.6438578539638087,-2.0103292689737486,0.6564835014726782,-3.002454208241943,0.28601315574885433,-0.08242132353337794,2.108033330063037,-5.909217791301671,0.6556083769949055,-2.275591703784414,1.0815704445411711,-0.01131426765107868,1.5904281352987937,-3.5323036956674514,2.278300743511636,0.03950377137634753,0.008951055848969491,0.05963082499499306,-0.03855656638162763,0.03973474183360093,0.3990259329485184,-0.3340222365455432,-0.04467147473947275,0.07965489107962753,0.3223626919020841,-0.0004269226637525561,0.8280564172299165,-0.47559536085394427,0.19881723651399952,-0.17661851509432935,0.21410463048650108,-0.21576775226977674,-0.004806711621818671,-0.1979265536282213,-0.046257973129628205,-0.048030154501155664,0.08264727666605154,-0.07806780233336719,0.15508659883096243,0.09670921710413438,0.24315690022237568,-0.010641173523455172,0.30926026443485455,3.6640797991701675,-8.985155445347573,8.594772269250143,-4.081061916640124,1.8523370626727171,-3.380228504125455,3.546322920767807,-0.23821532452818062,-0.9187777704125466,0.29075757958661796,-0.8355982396044936,0.13106566568332312,0.4211330382077705,0.7971247955060576,-1.6523276263783941,0.37826468724442464,-0.8779806949608542,0.6427062504240553,-0.021848326765612214,1.08771524115312,-2.9075975446447444,1.6687056585342361,0.04188215472371226,0.005044683298505714,0.04398391427077697,-0.016528828056680656,0.021905885175585116,0.6785598346272934,-0.496915405770352,-0.038113452162511496,0.05699328542659643,0.4081048851183695,0.015875469930903274,0.7882148763456769,-0.3440019010010218,0.2346390781203116,-0.4788496641236364,0.7130047353571314,-0.19795629180759278,-0.0074739459362635485,-0.17671915759601653,-0.02689058173757286,-0.02520633479514256,0.14176454764242408,-0.08424935228585184,0.14409964728980107,0.09653113127201784,0.19219725106778895,0.34752870055749696,0.2753126883820869
