0.022441416226766542,-0.00572203037690977,0.024487644922752683,-0.09072018194548637,-3.3243522872507085e-05,-0.017591806239540375,0.02905002381680566,-0.009330444214687983,-0.0032902404649702566,0.00527396536158764,-0.008800942117799804,0.0001970954590905117,0.0005409145953002015,-0.0013711981615584234,-0.0035653008619401794,-0.0035515978709874108,0.004969013867546418,0.0010711409137285077,-0.0010598053649225614,0.005973047713702828,-0.0027358050311435955,-0.00023344678237746663,-0.0001375766432192664,0.002568582080103285,0.00019178643874129958,9.772509505885651e-05,0.00022772675101905698,0.001022501888991556,0.0026361962841559006,0.0011909719890919601,-0.006317524783357675,0.0027994439568868046,-0.00951522788569581,0.001616494969037957,-3.843060155310496e-05,-0.000893762832291832,-0.00033342717721095844,-0.002227167455969181,0.0018421662530171412,0.005570047420342172,0.0010362164656346345,2.4610724786372842e-05,-0.0024836589197295422,0.006430482623477507,0.0024340626613021388,-0.0022671221496733396,0.0008298735137172719,-0.010243491071062039,-0.004089549556574701,0.0014169960646644164,0.012301855134236872,-0.003412580595272663,0.01454719335736554,-0.04618065444711972,-5.8493481875475026e-05,-0.012931218117039345,0.018855366701110654,-0.009979203209722343,-0.003007278859057494,0.005501976701719202,-0.007557824840138838,0.00026357661956593996,0.0006159375247887511,-0.0017440930995769044,-0.003380872732925866,-0.004660482022365575,0.005360230455871751,0.0010143368482140869,-0.001081995657195245,0.006805910507043489,-0.0029966045704285516,-0.000212404999810345,-0.0001463887119739285,0.0028351931228881855,0.00017938252998075943,9.486483907894527e-05,0.00021301941629788684,0.0008975878332088127,0.0030701214508600527,0.001125965170977683,-0.007611337927560635,0.0025430584272427836,-0.009781152851269681,0.0014493070290789306,-4.9994916160409075e-05,-0.0009960362068774722,-0.000359691233770304,-0.0022113786259400497,0.002065161415408384,0.005985537273059283,0.001082901954893259,2.184807979492033e-05,-0.0019220903729562366,0.005029881162314287,0.003141189931942956,-0.0026844616751345862,0.0007009346538870975,-0.010699764503028675,-0.0032300986283095856,0.0014844650208625798
0.0011362887993947302,-0.0053346412795871045,0.0016082227331461196,-0.015670342829787964,0.04013056151688943,-0.015428783869539053,0.00029607077769013695,-0.027357271717339593,0.009484669809012303,0.007236049204092154,0.0006011018103488364,-0.0004905928230037743,0.0010803437975708957,0.00028943543248293596,-0.011166306981414298,0.0011329176964998966,-0.0007952456846112635,0.017341675927803224,-5.175391053829394e-05,-0.002442142388055457,0.00011204611419795424,0.010722115871681925,0.0010558311979241841,-0.0023378768984937404,-0.0001485150001211688,-0.000264481125609381,0.0018298919412420706,-0.0008525688164242734,0.002294167315979978,-0.0012501482097332373,-0.002938489836495861,0.007786049968312336,-0.001679118302190065,0.0009114776224800336,0.0017801572255676454,1.4511358340404696e-05,-0.0010070880907035173,0.0009988023818483446,0.0021099174347295746,-0.007442029552352736,1.1078588287678423e-05,-5.9589216505902265e-05,0.0025481781582060437,0.0017265438980181569,-0.00029698148018458305,0.0005261971734397616,0.0014909944427149296,0.0008569099354944765,-0.0003961033185671328,0.002783702394300369,0.0013169382961319698,-0.004361044529208213,0.0011784351741961352,-0.011274382709904773,0.015692223588814613,-0.01042948648692854,0.0004168520997670372,-0.016972948292405476,0.009054258071721222,0.006205153549200926,0.0005505016214704672,-0.0005957826064029587,0.0014254998433095578,0.00028106015853495564,-0.009291885176592407,0.0012518263919420458,-0.0009130118336745929,0.015499891053707637,-4.1389021541536966e-05,-0.002545808694147167,0.00011941432189806894,0.011548201618833076,0.0011963955246759583,-0.0024730002296524944,-0.00015851491716334376,-0.00025814454248745955,0.0018786526082038846,-0.0008310507126429584,0.001988865151779415,-0.0011914691832154434,-0.002942028847290973,0.006449984424222621,-0.0014663315238833824,0.0009815439266715048,0.0021527588579864088,1.6366011961049202e-05,-0.000939373219486235,0.000872864789941849,0.0019896080089197576,-0.007491031657844149,1.1335603393959268e-05,-5.970181652444062e-05,0.0035224493036913607,0.001621203614529082,-0.00032144976287619594,0.0005676969002414572,0.0012634930597597571,0.0008271809411724007,-0.00032866276753475143,0.0033348198993391476
0.0014710419868397828,-0.026390413971327575,0.09225885292512359,-0.06261389398655615,0.057166886315255905,-0.05463310833519586,-0.0005340893994174867,-0.006843530750448107,-0.0037249457148708642,-0.00038494356923430076,-0.0027066995394841448,0.005657947073607783,-0.0002630211380404701,-0.0011445984280209626,-0.00045494438944491955,0.008864403397610632,0.0004462049068525292,0.0038381396971004234,-0.0014148656524355652,0.0017992225070143503,0.0046391019665153466,0.0027478424108466903,-0.015357496753178879,-0.0010943170524281842,0.0025965441162010827,0.0021910341945763356,-0.006365071070389305,-0.005744436399787389,0.002966233912127414,-0.0076512939510224864,0.003265644778017468,0.010885793899970131,-0.03040851195405736,-0.006377927402537731,-0.005916755880247315,-0.008258059346497593,0.0034873202986223373,0.000979517608883984,-0.0018714348733392394,-0.005083458166519228,0.005956801921511767,0.01229398157895778,-0.004163201571634745,-0.0017741782542719797,-0.0012986978847989716,0.005542090713768766,-0.0021544662513511004,0.005124378360200077,-0.0030929360033168374,0.009968993781283353,0.0014776978559010168,-0.012431821698402956,0.04358639194850067,-0.034503426091110345,0.028567494474580624,-0.02808579444021575,-0.0008576593099631769,-0.005359685400564529,-0.0027767548811002407,-0.0005615195461932537,-0.00201039009612429,0.00480386533745758,-0.0002452111055606665,-0.001390561334324511,-0.0005285835781556614,0.010362414082667692,0.00048007605352605454,0.003483618979051889,-0.0011922863921947358,0.002005652994914661,0.006284563298649126,0.0027192297917571495,-0.013389443029865333,-0.00130211695844204,0.0028394259973372193,0.0020352858322449097,-0.006452030230541195,-0.008386749983735342,0.003786718893145885,-0.009593314399015451,0.004008570281730989,0.008412836753224351,-0.02804518321615035,-0.00799513847261013,-0.005326375211957668,-0.009805902982980008,0.00333576860249285,0.001307062021988603,-0.00235567309397125,-0.006407860337702798,0.005091973807241579,0.012242705147640587,-0.003433558935564407,-0.0015398388724087442,-0.0011427021412452887,0.005626622163955375,-0.0023674793042147285,0.004907981196538014,-0.0026959026097043703,0.011926410158487832
0.005522220794339283,-0.10446112861169032,0.13436169695343914,-0.006106060508364819,0.0321996724630651,-0.006400476686435397,0.0033555105726576495,-0.00564146196261564,-0.003582662337532516,-3.551405447063216e-05,-0.0007594602322855241,-1.9868081232571593e-06,0.0037763992141812697,0.0007912581073533514,-0.018818783623789415,-0.00010593382149339838,-0.005556219829515152,0.00043025892510617503,0.002058066984947926,0.0062509083590431835,-0.006161584293210176,0.01648659840113953,0.0021459831708373067,-0.005017855360781698,0.00536990047164107,-0.0019129935488637062,-0.0010419151691129502,0.0053218944055762885,0.0010429242238628178,0.0008684202511982445,-0.0001432767950948488,-0.0018754081665215416,0.005299707153952005,0.007765908856400827,-0.002341562873323863,0.001182238400248746,0.00041483625606626717,-0.001848897945265493,-0.00029510716035656415,-0.00473318411316348,-0.0012625016545734016,0.00027886605063012077,-0.001847652010020795,-0.00042832183152870934,-0.0010176805186535853,-0.001724349106861589,0.000669563205188406,0.02118215518511657,0.003987910218003099,-0.0017461715628594443,0.0044074633051214285,-0.06169028172427371,0.08122206609953508,-0.0050770691419603775,0.017878199049444987,-0.004506084726860982,0.0029841335225280485,-0.0037263680382765285,-0.0038239215256546943,-5.177117974257536e-05,-0.000832146061161939,-2.6936135394106924e-06,0.006124987143258154,0.0010096929730262771,-0.016404081999843445,-0.00013415098836195433,-0.004385767031393872,0.00046376406386661184,0.002083091763968481,0.005116969234407243,-0.007893213371350072,0.016661293773542973,0.002284446047795874,-0.005158458091457485,0.005711120999280089,-0.001507493048897468,-0.0012249053891841277,0.006193131355827219,0.0011544914047385835,0.0011903831820114369,-0.00013337254856082836,-0.002069429912383375,0.0058052269629045306,0.00795756210613896,-0.002168388043520389,0.0010282235722203492,0.0005023869567944983,-0.00210007055079231,-0.0002971264308328919,-0.005706086496690854,-0.0012030314809199222,0.00024286950409350624,-0.0015776805120992776,-0.00044100288215988964,-0.001111665318715288,-0.0015388731508073072,0.0006472029459775319,0.02098322219786808,0.00450991391427169,-0.001620878503817133
