218.11134391379892,-214.9809729308763,244.3122874589244,-292.1224082601184,142.6654128209084,-179.77655591583243,78.58404327163407,0.33557529313611667,-56.86976097977595,109.9676663032451,-79.53555180871717,30.280674913028633,-24.703538756325543,12.45057294387425,-39.116771622586384,17.87477974690205,-0.9656522647752297,2.2865082085841095,-12.315360611022186,12.70735754461964,-7.068458331289662,-0.20155119278479106,-1.4867634335828939,4.084216282336683,-0.027677271781525903,0.7236177433068214,0.26936828841515137,0.2641264223916622,1.0933810542815081,0.004535187155465081,-0.08186683488186475,0.08094069524862135,-1.788752440060307,0.5581070608504106,-0.5617645869847898,-0.2378282233506006,-0.12464466879283087,0.09785219276298207,-0.4709652046344992,1.6843506493272002,0.495748042600745,0.07068692461230519,-0.8917408807374372,1.6969471925357738,0.09720383439111302,-0.3264875919882826,0.18466482209899482,-1.7010239686250088,-0.4721170151044447,-0.13375647187331197,9.216480168413,2.5239189021800144,6.131987586209078,3.7126039389034418,2.708682106630704,-25.696461854297468,15.57550708334179,0.4192540018227753,-3.560717792309987,10.424170949042832,-13.110187376633462,4.469712217893402,-2.5531066502281874,5.0579883498704135,-6.300992527660128,-0.11660232155899308,-0.5458421354340715,1.7427497888845664,-4.602543708965527,8.554425243836931,-5.9151897842291135,-0.1665065130714538,-1.352763361872178,3.887814462075312,-0.1497565030487351,0.9277169560785836,0.2825054286012083,0.5278550050092718,-0.5104014749672388,0.0013140313866868425,-0.04260261956521916,0.3787391415032815,-1.5736501348733327,0.24302215081091916,-0.8269583283816928,-0.5617220135568957,-0.250672426813459,0.2913264127899424,-1.3619940742721326,1.2060941866903363,0.8425644475307408,0.34300912726322963,-0.36850357900792474,0.6394667236416396,1.473277142727909,-1.4872945148034944,0.1748360444901067,-3.7808084883291997,-0.1290420651404247,-0.09609792767253111
175.05913399778728,-220.03211234014088,209.75397454849735,-231.07690621793154,237.83536169215222,-169.40333707363243,24.211669766993964,1.7948808892362536,-76.58236827645578,107.01535145801063,-20.53060345706399,1.027123428679971,-13.546271105586811,21.752590885759673,-47.063660656041975,21.53049639900928,-7.473739101743263,24.684285893272317,-13.67013244047439,-0.15969955904567712,-0.23678225616339255,7.353540091227387,-0.22749672324998915,3.1769871811015946,-1.6314116131913607,-0.0979820414191277,0.6388689955018947,-0.5901856526888878,0.13520227144482533,-0.7686468278766085,0.11799171212410453,2.5609705342847633,-0.7444055225645627,0.6623370416093621,-0.06630282670976051,-0.09499155630260958,-1.2221473131064826,0.9810337335552504,-0.3247933824637812,-0.031865910021742216,0.2900549676842772,-0.13911593829861246,-0.07834904533199705,2.4742371120149755,0.003759442673318736,0.25823329405696427,0.06571410359775154,0.38919088289306814,0.5886379980845646,-0.986863469425856,1.8363499516369473,24.169298644460014,-27.611004321414384,14.165566135725385,-47.26960436489753,35.44710281498965,-1.5629332897785275,1.5515081302656597,-6.507050128487094,17.067552384821738,1.2956282112130282,2.4442861657615254,-0.5396255925654998,3.6152476777928086,-0.6714763954926042,3.8094571641522634,-0.06431092815591644,1.0732443999387726,-3.856745655168652,-0.06066967669248058,0.6993370132031274,0.92416974596469,0.9858499684153372,-0.31262973209317124,-0.5538143014355548,-0.3026616649743268,1.528247540514883,-1.306117523523426,0.16135445758351352,-0.8237537497165306,0.1970617613157124,0.8574209179572279,-0.20219742991623413,0.8302114869366051,-0.31732818091701986,-0.3289888883685421,-0.20281390075060557,-0.08194731534980804,-0.11110108224573878,-0.02138041148709302,0.623458492135974,-0.14717114828230216,-0.36079544988436396,-0.6559425648151205,0.0737845775906365,0.7678367442792933,0.017571136476319804,0.22538619101297996,-0.002466167246320261,4.158620813270886
118.41592622505414,-243.20699818911817,289.6505553364568,-276.1821964337214,230.83824122699298,-173.78147752635778,0.6142601311980798,6.580213912388842,-71.88578895807768,10.069094672773645,-89.79303738744238,83.33791310933248,-2.1581900389726343,2.759047683829351,-13.834014253666282,44.03401964294744,-0.004578278199534935,13.729113592996782,-1.3620365898020168,3.9809394918377166,-1.4184838496413619,6.625200585517632,-14.473045737435314,5.199279013505475,-1.3316044504379647,0.4514157186988541,-1.9857363176733003,-0.884460079560256,-0.06985497394006046,-1.379150489886399,-0.2895362596476474,1.7494130698451045,-5.622951702825048,-0.4162687590939953,-0.9393987389827743,0.4820804772067113,-2.275683497066666,-0.20915027827950894,-3.1294190011564638,0.3189254820723306,1.0600527816597207,2.746903504026889,-3.2264115726024727,1.177600519434563,0.3706016631460347,-0.10035628438055255,0.92302501827578,-0.5067940952005472,0.6046183345226694,-1.7273070176509293,12.234125112930542,-7.192353056698153,-0.02615841287750098,9.765093399381158,3.5909671986192393,-2.697366854303823,-1.758890936543139,1.538033655085016,6.468588202003048,2.604501989000937,6.061440413029459,4.959991680760822,-0.7230833935287819,-1.4507828612398157,-6.184370114663579,9.922211206462066,-0.003056217958281593,1.2571038442900004,-0.44279565714209923,0.6196606489287255,-2.657954475680725,1.146393761679576,3.6193659961712683,3.2756618141293075,1.8202574999884007,-0.01882538905570641,-1.1335945245877426,-1.46896462191647,-0.5862074270703488,-1.8294917215368969,-0.6180815527768004,-0.7737420530494035,-0.2728037984845457,-0.03941388395009149,0.2190345693490361,-0.16745518715327634,-3.595506740129508,-0.19365435699948108,-5.711615431199846,1.3526850110044393,-1.4432649345800712,5.365371705661346,-1.8662792625949152,2.6512388997855965,0.08008059823719949,-0.15925529656252024,2.216743857705694,-1.3662164631749647,0.7282940348920022,-1.2945780971152487
163.27787580701806,-293.09290386197245,312.7231900509287,-197.1875115203875,206.2523484294943,-120.02859951062419,38.44594859828135,2.61391273690748,-43.749202890091965,19.57209983681082,-49.840856858448205,2.8004944072530407,-0.13713846426047027,42.444825018874326,-48.302257868459265,19.034378465703412,-16.7341658528851,6.153979321223687,-1.6492469876205007,7.549348038765629,-23.160472979504902,14.20550909105782,-0.6362437802583258,2.2743994688526072,-1.5366023605241708,0.800410000087183,-1.079162166444405,-0.44328664282711827,1.1018654364333642,0.3967789810596969,-1.19914070961525,-0.12864827392513334,0.1637351358928285,1.790967045576778,-0.4937838414461737,-0.4466089051816482,0.10965560809158603,-0.28188581769427756,0.29439238336973617,0.9947113440322966,1.2104826328806837,0.4593743094839624,-2.717393590982738,-0.7020444113430102,0.5681733499602828,-0.8239712018919363,-0.5199387024244757,-0.6091758959217941,-0.14177061562811488,-5.504005755568642,21.458145722105655,-41.53828479923641,21.157971998718494,-10.590332096321617,-13.185711024884085,-10.281181171910703,11.24001769003769,0.35589045327910895,-12.614415668605261,4.9242177005921235,-7.871747575604786,0.8180008718048839,0.4840860309515804,6.750179428204433,-7.691478584816309,5.652514581037849,-4.35150792203126,3.099296501948629,-2.171094574942458,4.629398740812803,-16.93076630630003,9.158070225659912,-0.27466555082476063,0.6680894425517181,-0.9657975499999694,0.17520984612755797,-0.13473821842524814,-0.8494890335862664,1.660932559153828,-0.10432607409221184,-0.11274464633691839,-0.20526925141430397,0.7408350058293323,2.1188165048498604,-0.6739488877970956,-0.9185242807685299,0.8686382291946302,-2.861642610506891,0.5699510679992414,-1.2883611236187846,1.808504272214421,-0.4589478400017981,0.2369051303557761,-2.4008374516381537,1.3906265112102716,-1.3300698857294435,-0.3302281409498917,-0.24652210665802698,0.374533919043877,-4.467368323167875
