0.7276156892710048,-0.5098137788145607,0.8319182163510277,-1.5586311035537221,0.09360898201579992,-0.7064046410178335,0.54335663245962,-0.029847085990201805,-0.0686532073382704,0.21195494030911277,-0.21824485113566539,0.014204245656680659,-0.015983471356689982,0.02054443354458313,-0.14066622508542181,0.037109413427324434,-0.0016375779242385757,0.009770081137377984,-0.03241555008936747,0.06992190173738067,-0.03177717144700587,-0.006425914566770663,-0.001134513912594226,0.02192701010592657,-0.0029846310272827747,0.0026790504121230185,0.0037976677020675753,0.002784606300677117,0.01477075929128091,0.004284204641841233,-0.01693751553230549,0.00016175574747978594,-0.05291555531938297,0.005701323308587969,-0.0034246364774004334,-0.002507869020422382,-0.003748652072895764,0.0007181260753431201,-0.009512407358860941,0.03487697618994101,0.0033515683864490664,0.0001783996955460783,-0.0064612051127177494,0.03218770445153396,0.007973917617365434,-0.00726308617736926,0.001700999093216353,-0.049010066923754536,-0.017637786600467997,0.006908526706391083,0.17310195082836444,-0.11435942426444257,0.21724895591700744,-0.2947732739067064,0.04995366902306886,-0.2352749740358231,0.17970271712203356,-0.02636325684821017,-0.04628851153175528,0.11756096752416223,-0.11964115398777153,0.014818555910980802,-0.015667382110062356,0.018783023800507115,-0.09809381277429807,0.034162206596016986,-0.0023094193530710516,0.008668998049222054,-0.024278704743120882,0.07444552215828804,-0.03776985710355163,-0.004489547246715797,-0.001176721517024859,0.025604903136766666,-0.0039857190327236,0.0027134622779017015,0.0030497638641643343,0.0028862999462145877,0.011151204078572619,0.003444002100962379,-0.021001597112923598,0.00019603006472368456,-0.049486199933286734,0.005758521278082296,-0.007109140423056104,-0.0032494842487491016,-0.0049967285969581,0.0008912651404090893,-0.013584366005492177,0.03309074408843804,0.004154134833262296,0.00022223315696388857,-0.004149025773130255,0.020427336014251285,0.014061639654738833,-0.011533195271079322,0.0017356970985756004,-0.06495435691559948,-0.010824605257483633,0.0060573279335587316
0.21145025290225306,-0.4324957377302212,0.2975414242395047,-0.5689781817879975,0.8347103112228638,-0.5069924506239971,0.03093232522899836,-0.09678004394221063,-0.029534517575890984,0.14031497328111087,-0.003050308509866484,0.0019808352037564703,-0.0031070168872948667,0.015900567404604216,-0.10475488164866675,0.028856498665057906,-0.004180499277913252,0.11203021900063215,-0.025880553609802348,-0.005943646314476858,0.0013580383328243226,0.04403070234357598,0.002057206880040352,0.005744781535846344,0.0002045703745639088,-0.0001566592057917343,0.012230339277480295,-0.009583669822992635,0.00953389650168135,-0.008605992669352691,-0.010087153996696019,0.0399728286313632,-0.012643567510309817,0.00503123390004212,0.003980046885376842,-7.99910776759301e-05,-0.006786234475929159,0.002550691239391889,-0.005025082799547942,-0.010959884898287697,0.00037960629040256766,-0.004377123046623438,0.0009887717526103762,0.01733108262786942,-0.0009371348984813163,0.0029245444651215813,0.005134520075767646,0.006285924981147328,0.0022133140786115835,0.008799661118552349,0.054063039767175525,-0.06340653155180576,0.04001017099759041,-0.09954049299227563,0.043995275941499656,-0.05822384429025185,0.016035073800639843,-0.043240836095339574,-0.025629817782532927,0.09233987907480312,-0.0021063640346211943,0.006119233838641769,-0.004456957278510809,0.01183365294836669,-0.06577737342261214,0.027015775087934735,-0.005364392435230569,0.08416666210444257,-0.01935024292440346,-0.006028601735028061,0.0016343126125754684,0.044883898903041786,0.00295209519199785,0.005261448864227913,0.0002390815679339242,-0.0001874436795747808,0.015169743031488991,-0.01127399015029773,0.008617333063907218,-0.007951927420657423,-0.011033425033567301,0.03347901659456376,-0.011925762568020581,0.006883111929697039,0.006261802119585269,-0.00010328000926410064,-0.0062063209074962045,0.0020415710894425287,-0.0046676085051342575,-0.012607011690015213,0.00048226888753799546,-0.004285599583733757,0.0020001556697946676,0.011801888921469939,-0.0014330735538810868,0.004060030992030228,0.00231131563795256,0.005445257466969888,0.0012808498454145445,0.018892756121595244
0.12051140906685909,-0.8136994307112104,1.6041650902566644,-1.3938268616693605,1.0847231559090744,-1.0136746645872563,-0.0056721685241614694,-0.014554566189891038,-0.10931717559492427,0.0005903044248666695,-0.1294355272514176,0.16688347387409053,-0.003471892311322944,-0.002173476898017279,-0.018150429079440755,0.1332563681752994,0.003671593343668178,0.03921904677645216,-0.0021926660063906755,0.013860563018490923,0.0011679862422958598,0.02359571782220704,-0.09952039312524619,0.012932065910682855,0.0060127901970832565,0.0066474735908704785,-0.03323079374161342,-0.01546943398124756,0.003714714573797573,-0.034788786804416105,0.009029924475986828,0.04450298513316242,-0.14711111720928471,-0.0101946367408563,-0.025686998027270036,-0.010725261922561957,-0.014314170070075072,0.0006309234786370382,-0.04496869226964462,-0.004477182084654974,0.014866190372811783,0.07567644608556989,-0.04885222990354965,0.0019139056137783966,0.001303682542106721,0.014977492097767775,-0.0033715321444988122,0.00935786815535189,-0.01384768496143729,0.010481926152247079,0.04440985188817348,-0.11848610403936632,0.2490326089941295,-0.21781569732760708,0.20781673823767477,-0.23731421827257293,-0.014067955649118558,-0.009868785335131691,-0.04799422768437722,0.0011907173346037414,-0.04687102062033821,0.08085536672933102,-0.0036309043413882414,-0.0044114137831626765,-0.018269630704349282,0.10188354371420516,0.003492896744927698,0.021616550744170127,-0.0013740640831669815,0.011429400759644381,0.0023104632949427772,0.01683071589687435,-0.05876449158121133,0.014462087535605739,0.01262247492349644,0.004961134998322403,-0.03246699722056068,-0.030907641149585663,0.007047012484452053,-0.054074676670201605,0.01253239961368191,0.02201196300740793,-0.10028294100141366,-0.01766592642810827,-0.01895511773969627,-0.022612096712499863,-0.015560692010576194,0.0009055650209872923,-0.05665685370217943,-0.007872337462406231,0.009942346967234228,0.08269126996769938,-0.034312075409151266,0.0018699696329802645,0.0011901728398552858,0.01890146578120233,-0.0036374041779824173,0.011921213519165974,-0.012640840436995815,0.014031684068307015
0.46907874961213025,-1.9641502304734502,2.3248219553605622,-0.5660573814335805,0.9683886336447642,-0.4395593497957684,0.2756262668001419,-0.05507546659162976,-0.06670003135279767,0.008993146858727208,-0.06666265440429697,0.0021745934539231793,0.005694411896429941,0.03842723870146614,-0.2668326703951749,0.011501777303647653,-0.08154236750977262,0.025455422649224957,-0.0016777716564834733,0.0711815745932105,-0.12901114668095737,0.10007850666007023,0.0043292089058177274,-0.00782253405537725,0.01661982409343954,-0.0036537227655843996,0.00013717282462955005,0.03337981582352256,-0.010129542238238032,-0.0010011823928150476,0.01585719646572792,0.00813243050145096,0.010131452716031886,0.057669752081976,-0.02362399745314736,0.01210133795636037,-0.00530069710912251,0.010933845303506828,-0.006183744712895289,-0.004370089983348507,-0.011916764534418589,-0.0016752097381766973,-0.0038314423929697305,0.0008952235362038111,-0.001259648206093228,0.0051297783107350226,0.004203619661847291,0.04038734192472049,0.011623013430662521,0.0031291956086617334,0.1636589280609595,-0.613016696842184,0.7322601364239887,-0.19381166922705972,0.21313494832604363,-0.1558631397567467,0.14182011358246527,-0.02854373584196157,-0.05272088870432956,0.008586939140531769,-0.0439696286433211,0.00263777937230264,0.021372364660765086,0.037191993391014755,-0.15320351843548963,0.011952705291976784,-0.04922206925615047,0.020085488776261373,-0.002198830676132024,0.05594025405769454,-0.14374479076753843,0.09694114222332129,0.004920763113312465,-0.008769834176934888,0.01597490903118781,-0.002656828502233699,0.00014462974897277991,0.04878176290107383,-0.012774835697476616,-0.0015751510917214606,0.015670230809805008,0.009769758558573427,0.012576000133366572,0.05920473703800999,-0.020100560192961803,0.011059873567354606,-0.010752160059517513,0.02218572232045446,-0.004264828312377511,-0.009015032605413975,-0.009783486319293877,-0.0014202352929462148,-0.0038498953111461565,0.0011479638596239433,-0.001410114273142568,0.004676748855433455,0.004775101938538473,0.04383698723221885,0.02065771934443017,0.0028055185189773957
