414.99885746847576,-424.73674106484395,451.69472967818365,-538.2954587471613,319.7451240962837,-358.362337614235,128.67125351789582,1.9719872215671899,-313.8606810714409,377.6768045439094,-169.6536455867681,40.50863113545802,-19.807536007333965,8.523671824885355,-21.85070170647805,13.972226089917967,-0.07407658312953647,0.7202859925798748,-4.762475310766831,5.355911620728875,-2.4174419397805877,-2.7278035386702726,1.4079551212198567,1.429292179875688,-0.018460557819164336,-0.3925191729686617,3.0786007230826726,-0.24633394928149954,9.14916153906745,-2.338758161852269,1.5660024902217629,-0.052615459280382026,-2.2918514951925317,-0.3095698188013216,-0.6401090636414892,-0.4233992596896101,0.04099069027377311,-0.0005939333465843077,0.08342303795682326,1.529594353764736,2.6512102873870447,0.1440434611175121,-1.5617099518502755,3.7945656717044187,-0.16772782976413936,-0.8946773425681371,1.6562351398836768,-9.200302046498336,-0.5617921690125343,-8.94147372312716,5.232153623036766,30.847656119744897,9.076889792827671,8.617413663356501,-15.181235365489556,-44.63267102236205,31.377808754218677,0.21762440470678257,23.367808870770432,-9.307606110941379,-9.344052945992189,3.125929863351473,1.1410361535974687,2.191808087519888,0.9795593315018962,-5.702608294728293,-0.36147620564754845,1.121617161370068,-1.765059413046103,5.479424310179638,-3.048725596959315,-1.7093434799428664,1.163061307365865,1.3142707634624458,0.043156755764997,-0.5316568878510708,3.1260126354118256,-0.6532999868384621,-2.918415200192186,-0.3021759956341761,0.4674992318212645,-0.3601595444944792,-1.2168150642253295,-0.04203787457197805,-0.7631266464240412,-1.3522707599543082,0.08422038920475927,0.0007225191669455455,-0.5816734379891244,1.0234964726288496,5.603563394175808,0.7423375503931879,-0.2810749271912165,0.5001170088827038,4.275638804733433,-5.660209084324094,0.5573971184685185,-12.663681402252678,-0.15287683357688664,-6.903302884091147
374.4806688922399,-456.3675212086673,429.6502447402745,-463.2065953828351,473.6533750644667,-351.94276379190705,49.705039780394145,19.910666181980332,-376.43733147260355,397.7178487977799,-74.354304344497,1.7649910495515542,-23.357783131891665,18.818578368373892,-35.24087554046673,16.278434980711154,-5.125393422987258,17.360945590496613,-7.318717575327469,-1.8058063440264078,0.5390100642588536,4.392781031209893,-0.24412538916182314,-0.32024514050833375,3.230745284427826,-0.6140706227409076,2.907002620365347,-3.471156963146086,1.0834763491978237,-3.706812817737841,1.1138770163057643,1.6066923663500177,-0.7434608971222119,0.21871644233169008,-0.0032673028495813217,-0.1786965611230098,-0.941142529740091,-0.23519250355373345,2.373405903346736,-0.7319954211032709,1.8585533285904603,-0.6473998572489847,0.11678234904767315,4.409945424216858,0.009907835148066368,0.48460409567940843,0.5467241492279733,0.37728275857280025,1.670025880692151,-3.7194165239512245,24.120544692490512,64.62946509539597,-30.738045392885397,4.386409926012789,-96.24747574866979,72.58979612288476,0.10462775819260628,1.5490855725438735,64.89777123732983,-21.62997226185007,23.15301949878858,4.579841837751019,6.8636070789943915,-1.931687584099393,10.495602302148654,-0.3625777504888461,1.7116703448640465,-3.463040063589631,-1.7760943338415984,-0.13542080239143317,1.9428248871784604,-0.5501735393102436,0.7144740005400934,0.09057431231493496,0.9009796333699143,-2.4217464307132985,5.992626804137245,-6.4360495046485084,1.52521468968569,-3.3172865960212903,2.000972631176751,0.26009993207662063,0.059650388143716704,0.3819059369726574,0.20389792645049454,-1.440528603458759,0.25532367049052596,0.11029878937358717,-0.2239390494535165,0.4571034219774006,5.816085223144,0.31018470082111804,1.4616854609849312,-3.0268579178878667,-0.18958273896309663,2.322855489837991,0.34527911441349346,0.30308956155213984,-0.1273629019225746,8.605853569792998
292.53939308448753,-463.2172743949486,489.7437346660081,-490.5044264240569,434.7374910367507,-345.8193907305176,1.595463315537529,56.11911353690084,-374.4027425031818,86.9278807907931,-209.76770291502908,129.40338339144728,-1.8431293798496426,2.3744019938312704,-10.798994425549608,36.15461031506311,0.050526146701201924,7.46560825650397,0.5635277420894624,1.6720866600709812,-0.7507033751106178,3.756564951883661,-5.093490706608776,0.6134778840485922,-0.8625698268183157,-0.3822961765683033,-0.5532871463549327,-6.6621705547510714,0.09370950132147726,-5.754120956116822,2.1261261978055472,-0.005087034759668541,-3.33514675952361,-1.7164847093799267,-0.5126782273843489,0.6181416133642941,-0.8820149043302621,-0.24231270736321697,-1.6812094750063409,-0.14700660133252086,3.5283122993078564,1.7760505203430625,-0.8557665976370288,1.0016582552557622,0.28314196648098644,-0.34406527744906157,3.5504851434781415,-1.6732324461312942,3.871615975487657,-10.17124081612053,34.87139167402711,6.4084798736547555,-39.60856080959047,15.136465951549553,11.275863512043998,9.778700779313567,-2.8295500666238524,7.246554166592432,26.563917575385176,5.943729502180759,10.335109426848703,8.953127408080945,-1.1286454226597584,-0.5345330806809017,-7.769605813456792,14.272903259744112,0.0678838581080754,1.2698042296256773,0.23981964746116802,0.5873423142890566,-1.5193747720871897,0.5839901836811023,3.3792476975961563,0.4599626399721046,0.8793469175660817,0.20961848950966555,-0.7101642443604987,-4.374391159324887,1.1239057381287125,-4.712414312758483,4.499097305754276,0.0047738819277185485,-0.13788515088664255,1.215924742555302,0.8097124118931873,1.3690373457206846,-1.7751897644566554,0.4970999017936535,-4.571168310541282,-0.5976034511423904,-7.71161877727053,6.898467516379014,-0.7470858663544888,2.8791465270089702,-0.7415167163734111,-0.6758361079229758,7.644625861913994,-4.483474560831382,4.237486347410027,-4.367650687132993
301.85228413132063,-471.90083094600413,512.1787400845424,-375.7225569055299,405.12975893398107,-240.1848962668064,54.06497862477249,28.07857006730785,-304.6914990131081,171.72359370424965,-167.7892633642823,4.521995015681938,0.8816628315218296,46.64389797131662,-35.837220117369725,21.5451367155448,-8.932398251114819,2.863302165076931,-2.3512008039284495,3.0235066517161613,-11.5130044080949,6.124636232877094,-1.0906831387680285,2.2054661404239937,-0.8402821208660569,1.1215568435572436,-1.06398473670788,-6.71368295479752,10.600796004621316,0.810222941234926,-1.8378117900699351,-2.2819427379290573,-0.7058251940102309,0.9722088847800592,-0.013287702553829384,-1.3281525182633231,0.02350074052927198,-0.4442464373310102,2.8876138343571256,1.053022877356966,4.711279323543295,0.920471320011643,-4.831864723820388,-0.3615762480262994,0.5163247561319793,-1.3317185921326598,-0.3002648439492006,-4.317316418529629,-0.12892236873938145,-20.56977851444799,23.41218727694968,-45.37845292055317,-26.438752712765563,10.191025515722231,-44.10261443235868,-21.84905415922833,19.04801468788162,-4.6523043738714875,-48.94309334609238,11.805946723144643,-0.30399404792552787,2.60476051351003,0.640614150926087,-4.25692514850283,2.426683645525145,-0.17772347921981346,-1.2129217816076405,1.8183874495619534,-1.1448016650534427,2.5175208434234264,-9.973310236920327,3.9935463647631764,0.39116600526366696,-0.1073757868780163,-0.2987275974919861,-0.8493194343926973,1.7486127294066165,-14.196455665284304,17.086374081139297,-3.2694975947172793,2.60692760648422,-6.453275577187014,5.7958692657043684,2.4661163613927783,-0.19802051039791735,-5.977875150217642,4.680948942650502,-9.387684115039065,7.650964616401438,-6.0947340763323155,11.008788608593704,-4.124388771740911,4.276252702702777,-8.40297916594983,6.733733952323519,-7.667355378815387,1.2818036996643798,-1.913346959485267,0.24463941906914144,-12.949942681251514
