0.14169027833233372,-0.07613738257453484,0.16249988387476222,-0.4136268420521816,0.005782391038795853,-0.13867195283171263,0.12875541087552733,-0.018484835147782874,-0.01572939838802856,0.033664048394058455,-0.044058126472751535,0.002180988210357948,-0.0026289202240419862,0.002101097687807668,-0.03275532288441019,0.004286882911408885,0.002615109081258532,0.0024656104973974635,-0.005677301692080139,0.020085466215995496,-0.008105726262250257,-0.002406524684474068,-0.0004051945576103583,0.0074727585413744135,-0.0009203735455705075,0.0005147173918782291,0.0010751800094152275,0.0017548011500863048,0.007345190172159288,0.0016898145408948961,-0.009703028076333275,0.0021034672894411632,-0.024567352401659193,0.0014613327403389942,-0.0019847258865101636,-0.001104359787491807,-0.0001616619975638653,-0.0011819516113424217,-0.0013862176764068562,0.014737412544659767,0.00248566684541468,3.433347128944638e-05,-0.0031756452743570973,0.013953128601499998,0.0033509953242499835,-0.00395969527034537,0.0016917267508661585,-0.024618866533785422,-0.010184034304972278,0.002122134272318721,0.046059530247681835,-0.025407894694264854,0.06169328230478133,-0.12763571284381214,0.006549381931074905,-0.06482644874992882,0.057663187883130185,-0.017353858048303472,-0.012878760146539658,0.025375975341120238,-0.030540228590962393,0.002780354365432558,-0.0032330174756259877,0.0026310818542132075,-0.02847210278929113,0.0056295612433574505,0.0034116008169400025,0.0023030281168630318,-0.0049624304787487805,0.022335445201071558,-0.009629761724036512,-0.0019004086480384902,-0.00044321671219582637,0.008818951967441757,-0.0011159792304282767,0.0004956561343056783,0.00097898090529569,0.0016072312885581086,0.007771522010021403,0.001441300107736465,-0.011484661094489645,0.002272422665056617,-0.022314406359384975,0.0014866248550789857,-0.003406528937108688,-0.0013741386648800369,-0.00020572445416061624,-0.001286536723709375,-0.0018761574452683116,0.013633763881741201,0.0028830609489696735,3.4339436540989105e-05,-0.0021343466319621585,0.009218687535245351,0.0053239161810603175,-0.005214662258973962,0.001528653766853981,-0.027430856354762057,-0.006915912452795825,0.001977747621366349
0.02131367172767895,-0.06472250592247342,0.03330143564007626,-0.10025116395860145,0.1889786062719967,-0.0993978864696583,0.0030652709606486805,-0.05770847721748762,0.004332605555310648,0.028590419674683787,0.0002343897007142659,0.0005434215911164497,0.00015270522734072214,0.0023838754473198415,-0.03044841039170265,0.0065243060014600895,-0.0008245218338723548,0.03774333861083057,-0.004312438928669449,-0.003594211113834178,0.0003491738923323117,0.020445313977477397,0.0012975599004166755,-0.0015267681709994069,0.001017013022556884,-0.0003611928608527881,0.004945332659096469,-0.002915519932282784,0.004738863548436889,-0.0026586738094518114,-0.004931199595511693,0.01733239114258489,-0.004775308303400588,0.0018598009626326073,0.0032773130981539333,1.2581990320639086e-05,-0.001707033878243086,0.0020306003821009,-0.0024797993482123526,-0.008036341265249547,3.397153620517731e-05,-0.000433694969329948,0.000818409487068017,0.006905357465538942,-0.000690996054014098,0.0013817200804245797,0.0026020475258927145,0.0020590380635749916,-0.001002719061822005,0.004686571840263998,0.012046519370779496,-0.023669703555755817,0.011962433954653573,-0.0383423406697454,0.03891686956468021,-0.0343576728065873,0.003380565472828889,-0.031045942951920757,0.004246108782658686,0.020749524667325936,0.00020629916525238476,0.0008802081817293472,0.000252648104906536,0.001956068166943964,-0.021502730547870996,0.006805840638451688,-0.0010460986268414907,0.031889314169573746,-0.003111114289172906,-0.0038881755161784826,0.0003994607406222414,0.021207228958716184,0.0015920936280402753,-0.0015889689957419156,0.001181297593903799,-0.0003595507023642225,0.0052806290194284955,-0.002981852563447851,0.0045136393610401004,-0.002431339425602863,-0.00515578124677718,0.014558520596120728,-0.004336199060055973,0.0022470996278223243,0.004432827616113466,1.4990984903507157e-05,-0.0016713649701859817,0.001662181191951717,-0.002166584754762446,-0.0088324392460577,3.748606238367395e-05,-0.00040490509574565847,0.0015316269397329663,0.005060911098909993,-0.0007806872639039841,0.001535476737432595,0.0016760673371055135,0.0019134233474153162,-0.0006538037878048436,0.007324829327556931
0.01395801707985811,-0.1527356626229679,0.39853591231961616,-0.3185686078786887,0.2529041181904148,-0.24415354463186034,-0.0023137268052268456,-0.010906752511349316,-0.01961477022437208,-2.9492807837438323e-05,-0.016613647631413375,0.02512690269942275,-0.0003805305532837977,-0.0017721219696698737,-0.0025665641282103246,0.02929576703513015,0.0027089816384874843,0.009635894303622827,-0.0011850944650758644,0.00431584335986257,0.002722743377792436,0.009352392743450011,-0.03867370663679992,0.0014458618898540443,0.0046920498648606035,0.0035214670977290197,-0.014210992122911659,-0.010238715094415207,0.0026930381047529095,-0.019449587547248903,0.0038069243733505065,0.020015325384306948,-0.061687905712703106,-0.009612799689562523,-0.011558645433530135,-0.011133661704731068,-0.00021931547418405084,0.0009461636350325819,-0.010798299626282315,-0.005852952682705581,0.012330544871217708,0.02779077869939517,-0.011957658120522074,-0.0019275574643585203,-0.00012523989570020766,0.006375454126980318,-0.002303061202953066,0.005201623476926764,-0.005114169890313547,0.007734135403563158,0.008716767799342051,-0.04282408445809516,0.11157508854996223,-0.10002495816777923,0.08168773982819388,-0.08904552205877181,-0.004020647757732032,-0.0083257948763521,-0.01112460993545561,-5.968965567357265e-05,-0.008660246206770195,0.01630905466906918,-0.00036231987867751947,-0.0023097999857409623,-0.003059426911776575,0.027546593342321346,0.002414432393741006,0.006970216539084195,-0.0007931742019339286,0.004192717414773561,0.0047667494792765774,0.007415952916006052,-0.026949261461597818,0.0017835129987558151,0.006887622037690333,0.0028411995137275214,-0.01405307904362152,-0.01744124381381562,0.00435743722676496,-0.02622056837282205,0.005446937986369582,0.012049346358114832,-0.049252573782755604,-0.014216240257191926,-0.00932143129054408,-0.0162319976444385,-0.00023676979053449676,0.0013184952438747288,-0.014270584695488253,-0.008703983127222203,0.009267917754428034,0.029419827944495047,-0.00885078832640962,-0.0016966762130039004,-0.00011086069854079894,0.0074412200836578846,-0.0024951174329872483,0.005932412518633967,-0.004202747015996211,0.010178244226051625
0.07203793199592301,-0.4925051107712193,0.6000645173360368,-0.08303052745762596,0.2024134562742308,-0.07224395519939186,0.044780617827715474,-0.020514185799030304,-0.013932252840659576,0.0007908180425577616,-0.009186077341340582,2.8754142795908103e-05,0.0051449428700416355,0.003810923449690806,-0.06277833628184126,0.0006259124434839294,-0.0165861185270344,0.0036643403659379625,0.0029349923789744325,0.01581947675173201,-0.02345029061056536,0.03270382665525906,0.0033181737379377463,-0.011527811253677966,0.010758750133268491,-0.0029769191647339432,-0.00045518491455019683,0.01158951570612654,0.0013503202983390847,0.00048649781733754727,0.00753802921470248,-0.0006739313430506391,0.009533943608385442,0.019249685454190146,-0.005334950603650412,0.0038364039199299538,-0.0007024355437331986,0.0008319570078487923,-0.0010237028858695596,-0.0049295223107276576,-0.005182177645770142,-0.00013163194496470208,-0.001729631613541234,-0.00014297080077676702,-0.000729392773649723,-0.0005684162934001258,0.0013283510282922628,0.026128444415514762,0.007208216816059765,-0.0020051294279112564,0.0361337443519294,-0.20730219270062022,0.2602075500974266,-0.04300563337158114,0.07035971654941164,-0.034387980458662426,0.029884238853403744,-0.011768585549565391,-0.013139773387082831,0.0010831096389084874,-0.008254003986113645,4.204947725070657e-05,0.011362420131231232,0.005158960224169062,-0.04472870634742332,0.0007506657756439078,-0.011503047277539036,0.0032939449565928813,0.0034199313808115916,0.012701071297828381,-0.029904704043453023,0.03328852495433754,0.0037051589001670937,-0.011310499514587846,0.011035198076827901,-0.002217639558625001,-0.0005498812320099619,0.016013948243966514,0.0016438742397340764,0.0007579779193040981,0.007079431404104053,-0.0007111850003813092,0.009914504245406297,0.020530011288989014,-0.0051068574077417495,0.0033658600435374497,-0.0009765012777366577,0.0012869857826783432,-0.0008737577683715428,-0.00783732622035671,-0.004699520678827895,-0.00010857768220305479,-0.0015898514238051609,-0.0001654045721012215,-0.0008031825793251846,-0.0005389081859957096,0.0013701128074940921,0.028818197704944426,0.00973116450924183,-0.0017976261780449365
