86.3975684073448,-82.7429042931708,97.71653946967717,-122.55708385596336,51.46805918608379,-77.09688901266509,41.60312373092165,0.15268070531396916,-13.738172904051794,34.08989279089951,-25.961829059162255,8.292607087099213,-7.694625927733682,4.287363177552606,-16.109861684117845,6.930834544275285,-0.5413089255324408,1.1412905945728014,-5.51011207823467,6.443265413058043,-3.563836430163292,-0.1796144061335525,-0.5232042743907357,1.8352940283330952,-0.07704056848041585,0.30594574263962215,0.13500616622632577,0.11746481449906554,0.2398973463402232,0.19575255873410136,-0.2927507496907289,0.03728659771250342,-1.0896377214152153,0.4372226567907376,-0.2403853606484212,-0.07588365904923045,-0.17409556457312902,0.12180822449158057,-0.4174756056828244,0.9733409870928611,0.12924874950870713,0.035029477320298597,-0.43586168870047004,0.850250361391879,0.05040606885311938,-0.1196558361834743,0.017446294367909232,-0.750168728933204,-0.22490393360234506,0.23623164281527664,5.581816483682587,-0.7032769080123416,4.9014997222387535,-0.7252123407407538,2.9565120147360346,-11.910214245819589,7.916198595048627,0.22468782956775613,-2.4211859226004577,6.10896441765712,-6.259870829443713,2.0923093646320865,-1.6784803835758169,2.165188601890918,-4.266767111926697,0.8771636502129283,-0.36938670130975026,0.8541907809465954,-2.4030113276385237,4.504093315785212,-3.0608971540420953,-0.15098881607407577,-0.5068900675346981,1.7991295141781762,-0.17824960822287395,0.3647926975180127,0.1294054249461496,0.1913489877951804,-0.05786799369602358,0.09177068116670739,-0.24385172016838652,0.10027901143145712,-0.8562958637231333,0.25280001642332195,-0.352399180638713,-0.17720320120547584,-0.3031071564272736,0.2687164789933121,-0.9401009373031854,0.6957973202736412,0.2147589905507825,0.10248002172757786,-0.22069460419334064,0.40247177364646447,0.5119805032760283,-0.4011591987869849,0.014376994730273651,-1.4208262193029668,-0.09266410329089325,0.1704792872230243
64.16814551424613,-85.46022380497789,80.53699581751061,-93.65972364882509,100.68672366001101,-73.4439843785367,11.768168795273368,0.4888353841915176,-20.177356769851713,31.988981089320077,-4.380971400558224,0.2853598771941215,-3.179300322377202,6.637901367247082,-16.042939996644918,7.808385646502757,-2.493654094513431,10.209308236855748,-6.104633897936424,-0.10100791040632995,-0.061386488561382624,3.5621614028402178,-0.039285047187044064,1.4218677311697547,-0.7867329442338189,-0.01549341772599333,0.26125488171609845,-0.1935257818134941,0.0918507711462131,-0.23272095374217905,-0.04030131254172176,1.4823363025803644,-0.40440584115232525,0.39663054647884266,-0.08379669839856163,-0.022149592575604338,-0.5831382480352545,0.4135178826403916,-0.1651168455833627,-0.031349881530811086,0.06906853490092324,-0.11376357556631156,-0.086780704277023,1.0312873227131973,-0.008806564829684227,0.15679461223692215,0.003064453589476379,0.23409692380911906,0.2542520409456017,-0.2292142441451901,-0.6087280263395201,8.232699334904225,-11.54175435570437,6.108896498914191,-20.36797957586623,14.908646369823146,-0.6835748560371542,0.3729641671225181,-4.5020491938162195,8.655979639469933,-0.2695321324102835,0.9285343020568035,-0.589225853173641,1.9225697847205083,-2.076430619057419,2.2054510518109964,-0.40652878437363427,1.4951982418079552,-2.060803850793718,-0.07195607043116059,0.37047524960783207,0.8281221974763611,0.3480382396056143,0.03329218964976466,-0.36492953562167685,-0.044255861719473266,0.5953909153403742,-0.43164074401368424,0.09587941091414454,-0.27489832659898994,-0.06719887830343652,0.5723667358649323,-0.19681439801539824,0.4734785888315223,-0.248457536021931,-0.054778225109503254,-0.2486394120133042,0.06870139357202021,-0.10180127993185195,-0.0405584366674705,0.12884979910516847,-0.12443083133293165,-0.3346790276760103,-0.08259383694069111,-0.07536852368751568,0.3647023700590353,0.0009847071784305772,0.1614247799268611,0.01845583027401787,1.5264043329633665
42.07392007213639,-99.72143426255843,127.56055418326196,-121.60014080555993,102.719241189061,-84.11180620774758,0.22656160170616602,1.1158796555051254,-20.793067358714097,1.5171429872373068,-29.086634960738593,29.12583588314442,-0.6802815371454898,0.58637461323314,-4.301052897887416,16.858705441321945,-0.05570531682074886,5.521808389858052,-0.6422863128545941,1.7423206392190735,-0.4259009425762432,2.4574080085680805,-6.953073422293528,1.9414525261278186,-0.2884881069571037,0.3521977009003052,-0.9232066935934498,-0.29043878009099444,-0.0032223679598679666,-0.5545347502262921,-0.046290170639373684,1.2554212374947298,-3.519601171432214,-0.07201081709673396,-0.7126423515191505,0.07345528108322341,-1.033133892023308,-0.07226840945852331,-1.7014233106510517,0.11832519585047407,0.3526233980923621,1.6621904036692001,-2.314167987516157,0.4629761032472146,0.13336296489901756,0.10114019010458719,0.2600020891281112,-0.06383449034261446,-0.083378668880556,-0.2528882637867653,6.224764127596245,-6.387569458066167,4.301637255973617,1.449682437280586,3.9555272756741147,-3.6468617472186224,-0.7433568278925407,0.3902218041551109,1.1098175547618752,0.7328481220315481,1.308136688035944,2.5217443031596645,-0.3646942098082704,-0.5632093331142194,-2.12664502190313,4.384749905209901,-0.04856837714793372,0.8900335987831909,-0.2692923866919017,0.44241774172613546,-0.8846056318668651,0.5465171183104722,0.8237822059016864,1.34273798629863,0.7226277104444421,0.04695386656592859,-0.5343763955890353,-0.5122572123550526,-0.02133090096819501,-0.8100282148684812,-0.09828491577331988,-0.30488174073790475,-0.45227813794898,-0.045227919943701345,-0.042741417614058363,-0.2545037976975806,-1.4843395025877584,-0.0943307223958385,-2.5958214373919617,0.3990272183207253,-0.3223677323229879,2.459998577852616,-1.3003534733655329,0.8590975291084888,0.06950797191113445,0.13983265880721518,0.5405089331460786,-0.15283528163919868,-0.09982905258755892,-0.22784631959187607
69.48445097019612,-137.1799782786984,147.85862424669176,-86.15335515064407,95.0493169998972,-59.367636440399565,26.781846867662352,-0.3193169438713994,-11.256420878452673,4.218101675069192,-15.79596028926835,1.0763387593723337,-0.22904570650392486,13.354065439400529,-21.54772122260283,5.520612088587313,-7.974118828526684,3.2061744846714646,-0.3849862651310616,4.293075451740151,-11.438897771838583,7.34671496168346,-0.04886848797694654,0.5365704206278679,-0.34177536167577927,0.15289466841439037,-0.2751735244717146,0.28026345621557525,-0.04858783723262983,0.052503228262203994,-0.24407588486639042,0.34901649924726996,0.0095801191268432,1.4356878482633562,-0.617063425863563,0.09411642901441652,-0.11239224828382532,0.040835673951368,-0.2052860670854315,0.21513579170129127,0.112554907487187,0.0755596639947731,-0.6592371742624863,-0.17368342313828222,0.07937969210171758,-0.11902178199629354,-0.017102158316673055,0.12589163235943168,-0.20692516663866556,-0.8426066056846864,11.856517913788878,-24.648049612464092,20.20701991410533,-9.76486162021098,-0.6124500026917588,-8.129330421805605,8.848611938728482,-0.0887015764539143,-3.4602685278908325,1.1915684414555017,-2.666193113720425,0.31806089073780086,0.6583951471582736,2.9140203933360453,-4.229676918267273,2.12539574621411,-2.426735083476956,1.746939074910614,-0.5671027600304228,2.7889595135493437,-8.595198474843073,4.894377996770174,-0.02671995707279251,0.09623049027706543,-0.17890567436089455,0.02471908883696816,-0.05716909591696773,0.568924574216517,-0.07948146434268022,0.004973669674723902,-0.07130752493713288,0.49909600020592393,0.021766882534768772,1.528880615263816,-0.5701301087825072,0.14616934848529617,-0.5015431131454591,0.23157082268049578,-0.26857781332910236,0.0005639272141501964,0.12477264077702444,0.004820885775849437,-0.1318386758261818,-0.36997367555905214,0.1155681955660115,-0.11334174475510217,-0.0172654906310854,0.06702559472415714,0.6594508855210961,-0.6908105991817521
