414.23785282077733,-419.35800432154065,450.81770665349904,-531.3298864779936,307.15205854540545,-343.13467922404743,120.74784056081262,1.7932101740802864,-289.66607296522125,362.25813191971974,-171.6021361167368,44.31784505939504,-22.453802185186305,9.620867793443495,-24.750563913517226,15.032563346447205,-0.17731996093772295,1.0379359674684636,-5.716189924401306,6.396213023234736,-3.2553378618161446,-2.4435590357338697,1.1369655102468528,1.6803103818955947,0.029076356417530036,-0.3842065025791612,2.8202064155323114,-0.27346372838395183,7.8157492614923285,-1.9580457517439243,1.265211414382179,-0.07740322854935755,-2.031449663151335,-0.09335237338788716,-0.4515400198954609,-0.37459747065643256,0.014657830710071096,-0.043743881740759605,0.08624576791822847,1.448229340049977,2.2662215574245295,0.08590640186648812,-1.3710548518323549,3.3271096493848518,-0.05039500529909113,-0.7593514918593058,1.272831764204625,-7.656079359472528,-0.4623050991162998,-6.516795088151639,9.346446962619893,22.441015040406,12.365693576375634,3.3859888777920446,-8.9795615903015,-47.26233295534621,30.238654712685275,0.2354533656290414,21.099315863968513,-8.588004047747745,-9.041365333518115,2.897388042848661,1.1710434880412777,2.4605717782215493,0.7922347821103699,-5.636695328125995,-0.46719685686980483,1.4757874150968746,-2.006996289439172,6.060837638086582,-3.829625198077622,-1.578040437592449,0.9507336024430231,1.539730107950902,-0.07916744869323367,-0.529478465703562,2.9607347522389773,-0.7350925933225341,-2.7546114154349084,-0.27406859493807545,0.39358996462071616,-0.5226322605082601,-1.20284538421177,-0.018188641900547253,-0.5294755843086278,-1.2244740727576868,0.04684119337129289,0.08219558859062914,-0.9592751847692966,0.9008621308709337,4.726044464756598,0.538298872832172,-0.21887809041056983,0.4110541897664355,3.7809381698902484,-4.8270418831535835,0.5388482119288085,-11.167490870303254,-0.10236941089875984,-5.011534439220213
377.06822971442307,-460.51407146236306,434.37968528221245,-467.8478103754751,472.90184551846323,-344.5865337627729,46.14473748194473,17.18928548081101,-348.4911080481543,378.83742568483285,-73.65025848670484,1.7558903544153281,-24.790578112605317,20.570882011512367,-38.61212724546931,17.575799557827395,-5.842242863809702,18.915773049237032,-8.078863967176858,-1.398340064946325,0.37319424350824804,4.611661617051027,-0.3953777423628537,0.5893581018164724,2.221199686156524,-0.5960340428049093,2.6836681704363627,-3.2539718875661947,0.8778141718669019,-3.7463649637732033,1.18980084792247,1.513334572659403,-0.8303006850600525,0.06378904843572286,-0.003124279257958107,-0.19836565975312936,-1.2056410051253295,0.11260007792825988,1.6950599054341637,-0.5382074475445258,1.7899780735485535,-0.5025533128821067,0.14790930933868296,4.460973109246879,-0.010495155790108956,0.3490272504124974,0.5844422771642996,0.29388443716692336,1.7796873128239667,-3.664927480122344,20.466150370994,64.41501321880787,-33.72229066863656,5.818054120468162,-95.06158994708676,70.20249350590439,-0.20749204198029148,2.010097371420102,53.657234637549664,-16.290526395158622,21.572759941923323,4.546652191147587,6.394835659272644,-1.4708465164214886,10.124546306769844,-0.02157975446985194,1.8251801127739213,-3.531649799637478,-1.94862577743487,-0.10602670687775273,1.6343284645039091,-0.41427610318868346,1.1160966130581187,-0.16526381552959712,0.5831603750056047,-2.4346632695289117,5.890979603344931,-6.296866131390175,1.1846324703650168,-3.340671648336638,2.148654556806605,0.2801842491634474,0.05636196661514825,0.1106261587567019,0.4703686056958958,-1.6351733753103588,0.32113118526750384,-0.051644014325606946,-0.15557046351555925,0.3391944651692569,5.57184636802765,0.24634237853784313,1.7513143886161302,-2.989634660223146,0.24896684874786956,1.6999783069995686,0.3891002327899038,0.22647749640026404,-0.12002458369074098,8.833607352980835
284.4579891160247,-459.7436253023443,487.7975867046116,-488.19091034922167,425.24204213757184,-330.72501188016395,1.1031106891703644,49.10094348811526,-343.6156452529758,74.95741161432079,-212.84287645222776,137.68359537270953,-2.589570440068556,2.302092007206653,-11.54296077161814,39.21009174145365,-0.028214868549270022,9.151549961997034,-0.2544378008981312,2.3260248157064325,-0.5213706955219095,3.7699837791556092,-6.222102998373316,0.8245944874827416,-0.7152703704505257,0.03703441475681757,-0.4891220207191509,-4.485571939968395,0.19032186468063017,-4.182101882492816,2.3104453936522162,0.6899823433739414,-3.383105401121611,-1.1040690534709796,-0.792256398934402,0.5381941435032616,-0.5436822853820615,-0.1398945729057175,-1.5488370745935924,-0.3524093793924692,2.5687220616100603,1.6346358080011214,-0.9360068432094408,0.6124799655361812,0.1743786028772618,-0.04908446985135129,2.4463446273837803,-0.961328295592125,2.1836386697160037,-7.142158799337693,33.93761626594642,5.3726216400793305,-35.677314028868295,16.810550311817565,9.78304235637188,8.271899945603195,-2.0936388765741754,5.9866914764705825,24.95321932305103,5.107958586660999,9.791362924194118,10.293518648109057,-1.5097833576630038,-0.6289675523349558,-7.682172296320573,14.539567591134983,-0.05094858559033355,1.5780846851307047,-0.11858915365469613,0.850598051944587,-0.979143228741691,0.5481623905092192,3.6624645372180566,0.5884589404986542,0.7483273195316826,-0.01689769773338412,-0.5526791422682606,-3.5460684260278867,2.0175151730175003,-3.9164706188043965,4.693906701345298,-0.6183079253038244,-0.12842807448409843,0.7070128716062385,1.087319414924636,0.9355864150476805,-1.0513419478224364,0.23583808383456528,-4.037516683766171,-1.438829082256234,-5.609009544255969,5.993854324128733,-0.793569833683307,1.7581884615569265,-0.4157807474313273,-0.09662238383464228,5.645305875071017,-2.760169102323516,2.491179319994899,-3.3551792699065572
291.5368912919803,-467.4622732850112,505.20169119075945,-360.46849556623783,381.54402251180727,-218.005479179963,47.34107156139544,25.477663473164966,-272.67071110602774,153.16965762421205,-165.5813549263621,5.2404256512269285,0.545553856274541,51.97194799097724,-41.524523116040655,24.15762487950451,-10.89258501319489,3.632720766799821,-2.541491127667925,3.9095585220112525,-13.880994361845978,7.438655877382189,-1.3615796242970362,2.7000278928526313,-1.3688632141783899,1.2191646129476297,-1.1802391432942727,-5.141087321700184,8.297255339854246,0.8218629444285739,-1.9581729441871687,-1.8726774476815535,-0.6201522184228736,1.1392575735098944,-0.033296879414074,-1.1728355278874005,0.0024150840547522423,-0.3433489876664595,2.3002667610001026,1.3233703998228918,3.9959348446490424,0.982356645628947,-5.026442473969041,-0.3399296323869905,0.5015917021397378,-1.182320972899305,-0.4681008617032205,-3.5344949060634008,-0.11490893476392117,-18.373237707079852,24.986347610746407,-47.88492087802206,-19.164348592262854,6.995217511205283,-40.14437337540585,-19.49450810530834,17.037636513569623,-4.114280984578613,-43.49031604587185,10.907362396902158,-0.8033860231249434,2.6424822484876813,0.5232038532698304,-3.8899590180528207,1.7943123461074606,0.02291878687029203,-1.5417047929405499,2.199085948687525,-1.1919871985123152,3.0893208823704015,-11.397058284583409,4.692518874794587,0.5082270119743768,-0.16764306724219402,-0.4684492506131477,-0.8979282138592559,1.7711591604641796,-11.401657050822223,13.962250178247473,-3.017896116479278,2.618867900975772,-5.274024710021536,5.282131083763261,2.676764320446466,-0.32369670325956434,-5.28749540033823,4.390752721720617,-9.001819559566911,6.387155580293324,-5.945497258732644,9.560531112488775,-3.8092133782409974,4.041757597733522,-7.917994246799708,6.175470184020412,-6.862849722297824,1.119572908835778,-1.6976284533998296,0.22983281185732096,-12.263195787588757
