402.791502240776,-405.28132700066635,438.5905599531179,-517.8010413999473,292.9666026054838,-327.0801832926918,114.99295228591836,1.4919919555141377,-256.4965821490423,336.58017714876405,-167.77992777641884,46.83473525222689,-25.200986987566466,10.8307236929179,-28.292230918598307,16.163774494106292,-0.34733169989793566,1.415772583057965,-6.701729600025146,7.457533856545638,-4.010861772583212,-2.1668766277389295,0.770877172287328,1.9857922556448102,0.05216320964940557,-0.2817682493893301,2.4741736318380134,-0.24444978474384982,6.03309937439235,-1.455704437579243,0.9107013989199402,-0.08818164297058928,-1.8944675548007837,0.15647533352901632,-0.3271111537269462,-0.37764212212955606,-0.011230651666149782,-0.03593711949433853,-0.013914001459027325,1.4037523749078673,1.9120731348626805,0.03162284215335376,-1.234431034786823,2.990666598091593,0.07415357271932344,-0.7207486385759267,0.9782574211355097,-6.261025496207537,-0.4047642787345751,-4.46479469137131,12.463119025628203,17.162242552652742,11.387473641613042,5.614112417638296,-7.724817247938631,-43.83072891884967,27.37138065282761,0.5284554623454056,12.619693331747442,-0.6711138509183812,-12.159315765841257,3.928247863315562,0.5306547126256049,3.0107746483423057,-0.11310937842059943,-5.142155745892296,-0.5819868488427886,1.818874550398533,-2.401662917847119,6.795332876742918,-4.525262562088869,-1.412793574402187,0.6515472756614145,1.8291489197586088,-0.18189960350556333,-0.3874092205643649,2.606162021879612,-0.6401484124212686,-2.2947656240698393,-0.26071021769683256,0.32448977876883944,-0.56859307478598,-1.1600716249409615,0.03925715173326694,-0.38257208017057565,-1.156011791633297,-0.03030132293311283,0.18801845132747985,-1.2720420893558924,0.8894567375783424,3.721248702168168,0.40471759201011537,-0.20462961035937788,0.4612780212177654,3.2212300589429788,-4.07112449062538,0.488783566863944,-9.62656233931375,-0.06657063230959714,-3.3706203396266687
368.33084612894527,-442.29939450742677,416.5599857240886,-446.78900506121863,448.8819627467019,-317.270533073206,39.71718601963039,14.52712814289498,-315.89630512024087,351.80690262593635,-70.68803910486895,1.7530533050686472,-25.946078707293964,22.968095142505263,-43.22747767268993,18.697739175011066,-6.391578970669627,20.192376450086158,-8.724897865200774,-0.9257553486419283,0.1678005003698697,4.914114698402386,-0.5269685697306201,1.5873626396365026,1.061984239117578,-0.5888159980008822,2.403180708739825,-2.9771511910001607,0.5935242637179954,-3.645164777483103,1.2683510480674585,1.5307814996630782,-0.9578908971423488,-0.007794859463921,0.019218935245603808,-0.25253663242034463,-1.6135009942354372,0.8343330459754412,0.6875684241833682,-0.2407264100383415,1.6648652277496439,-0.28932771294152815,0.22477332644615444,4.539163816116059,-0.005417907224022356,0.283076047585876,0.6008676294264674,0.2245060622909385,1.8900826219350293,-3.6206003143236387,17.490844243436868,55.891503259248566,-33.27317313100639,4.451070934050392,-84.87356618396734,61.988856216143176,0.2241306121413018,1.7706856843032455,47.19613804656092,-14.259362890636794,20.110657058043444,4.1682441485513095,6.063531549608342,-1.1856064516986748,10.277830747549501,0.013528540331466665,1.8833306814461253,-3.62355204259984,-1.9846391751387955,-0.11309500683728402,1.3419783974855974,-0.28239854653615026,1.5310953520787933,-0.4237486779110071,0.2778535699470055,-2.3511727800464257,5.482363566428603,-5.842888262127019,0.8423981805829897,-3.2240072966524735,2.210178729976832,0.31413432136018926,0.05236775998000187,-0.01283200956197561,0.7927050842107235,-1.7484339934133857,0.37541036079710466,-0.3634750215286715,-0.04466679010754415,0.15351783160563492,4.8659391199926745,0.14329373597562167,1.8713806589669275,-2.939104557680423,0.6938858995288655,1.230649613714533,0.37420348895376065,0.15520507885931067,-0.1188433066828587,9.36068065554764
278.74879977682576,-456.88073698672815,489.7204717664863,-488.8298493458278,415.2787410889032,-312.2305726678751,0.8733947120045649,42.1344326951521,-305.56112058380495,62.8033586436668,-210.91929145777613,141.91190995949,-3.232422936096043,2.5103704292127986,-12.631436110541017,42.198868459317964,-0.08096620697731893,10.417075042584202,-0.6393509119973828,2.780364951856882,-0.493403423141757,3.8451145982852495,-6.96586791990228,1.1514041942875224,-0.6771579306234656,0.20340357877321935,-0.5243968603219429,-3.8005079814749365,0.16524540612741845,-3.9014708546301335,2.1099796673107107,0.9751300645408634,-3.3198349190661247,-0.9828203790326739,-0.9399448357136606,0.42308166402932557,-0.5156574183624372,-0.1481419927180898,-1.5910378225278237,-0.30423172671015664,2.2040907442695357,1.6369851203307917,-1.120108853860529,0.5614119524563108,0.1663985024471515,0.040494233074440444,2.0683662764941317,-0.723117812279952,1.4917582998276657,-5.389746836849099,31.184526564792122,2.9900748371274517,-31.86124359110636,20.694326348735558,6.547634432959228,6.30350127483689,-1.792733472860533,4.8412036505720835,23.515096106527153,4.938172701952681,10.567841942533391,9.93458680937124,-1.5348941039616477,-0.7745792889961365,-7.85520293128252,14.339353774448682,-0.08750655249901484,1.5675141884663333,-0.2737600519049366,0.831783877459543,-0.9861029972049664,0.5994436144638158,3.844075079371123,0.8350660030479844,0.7653959960962524,-0.07875308585004248,-0.5756161422313966,-3.2035230390046365,2.1840562525396763,-3.509005391534629,4.504283257847817,-0.819868963700543,-0.11929670215573651,0.5782179959470568,1.1101244900497491,0.7859723850513589,-1.0176717050191542,0.16593665556546888,-4.134884410352015,-1.34150085619342,-4.715466502140885,5.971255988202756,-0.9247115543687414,1.6098551811294897,-0.3054812062220691,0.07572762922026754,4.631220717984689,-2.0339471186059654,1.6922746180864578,-2.626670857096414
286.36293272124385,-467.9063180380035,504.96455326916475,-354.5989500919386,364.36102187366487,-201.91263011252613,43.8275439818824,22.818891480954562,-238.21100559546176,134.2130741401561,-161.72037578967866,5.54232547309266,0.1233586290580746,58.51490752651989,-47.46060912531448,27.548642156029928,-13.03130784170935,4.218365232676092,-2.8227420712290723,4.5547315553803855,-16.462867925986757,8.915732158541005,-1.6890407255218207,3.267417415599425,-1.9967364497735787,1.3748855713195098,-1.3828859299288183,-4.74524071435971,7.586744506583614,0.7580347335219244,-2.174370903085432,-2.0859497123662862,-0.31671087987620083,1.0111617526037122,0.05685107151856883,-1.4235590158221214,0.12933403523301656,-0.5587992935487307,2.4051495423898928,1.4022833631283902,4.204392912753065,1.0088709023991669,-5.292142674465765,-0.6348106120054169,0.821514472238988,-1.5906099256056478,-0.5604846494628148,-3.6584334729898274,0.05926964027952941,-18.230763128523904,25.80984143086107,-47.84180562365509,-13.62628224162654,4.273775667881409,-38.257644631736184,-17.049530892479765,15.556846511336175,-3.2231249179166213,-38.24394279128592,10.526622181176663,-1.5234965672793805,2.2703092749073903,0.21573498209780695,-2.879865853849765,0.9196850278268585,0.7339125600024659,-1.8260062831832329,2.34901979055293,-1.437774089936923,3.188589263024568,-12.49742128335356,5.281578036608096,0.6324682028241426,-0.2236024239162404,-0.7383265775965455,-0.9638340039248732,1.9362561468497859,-10.305260434057516,12.61520255681944,-3.0388428709077004,2.781786084026834,-5.245144484511144,5.393723355870463,2.0261839074236434,0.3134811152422259,-5.534110748199851,5.564782841151782,-10.673472501921992,6.397438219286755,-6.290663820280201,9.44816044928848,-3.9781731172968193,4.073259925833099,-8.680916190875791,6.632864450647503,-7.128897981342163,1.041084552055473,-1.7558308561451668,-0.12342904450779457,-12.71866722579125
