148.24968538130634,-143.38071277443305,166.1366213928195,-203.56334617156972,92.25309746582525,-125.60469640809606,60.96895289666281,0.26764514345713586,-30.016927051964558,66.24669200960534,-49.54161151739936,17.379159098774835,-15.417907575442769,8.462431277911946,-28.570064104342237,12.866705869474572,-0.7410502361953419,1.650485512792514,-9.215429504998156,9.950177442530503,-5.271297883661305,-0.09652731990980712,-1.2091288259108524,3.3230409949117927,-0.027999621371279204,0.6596909250403087,0.08833002758174757,0.27898623787956467,0.6070496234751772,0.07950769627364451,-0.15359499342728,0.11277026066967011,-1.6174512634822236,0.44132369846982655,-0.5270909290032648,-0.15541211795933663,-0.10322599397922971,0.07708091604428091,-0.4304818168922111,1.4855764881422147,0.33237974839317985,0.06702691635799285,-0.7359528701642262,1.388279378155488,0.0795199402840101,-0.2571039085443232,0.1411930908769481,-1.2038533532487463,-0.4590271163104376,-0.14845719740969798,8.810528122139658,-0.3922254445573259,7.449093781089687,0.462008336255991,3.6889414521110098,-19.03277754292867,12.09726936098832,0.30261018561435193,-3.2672647551889895,8.498900214168032,-9.817501784938713,3.2322070636937497,-2.1260868478940154,3.9121787180822594,-6.004709122025815,0.7938208142529675,-0.38495392638759895,1.1675529327877001,-3.590353208607894,6.605030910246228,-4.31827177970689,-0.08312828810415951,-1.1313205326927687,3.188648122254648,-0.1027197866290166,0.8044948244896091,0.08965587400975039,0.4911077431509483,-0.2527879144079179,0.028203746826104492,-0.10735739017505708,0.3894601562376465,-1.34896169126813,0.21456347702096146,-0.7658531263144397,-0.39785264024655476,-0.19700321229205997,0.20476953702198486,-1.0032420099658097,1.15864212563865,0.5231538747694913,0.31413069698061413,-0.3966883280486968,0.6774250751962541,1.019032832462642,-0.9873709592059754,0.12446639897014578,-2.592945979222776,-0.15705437498425567,-0.1102470911267659
114.64442682578647,-146.3199145728313,138.4576099365404,-156.09290422677077,164.19845411058486,-118.66826100277831,18.002558576492447,0.7870889955768234,-41.50147525544071,61.3615364731686,-10.993806332283725,0.40977154983020014,-7.839516799281796,12.703532219623526,-30.166869671650147,13.613643063800055,-5.242919489610301,17.68718395092401,-9.381164696288238,-0.08818022984499763,-0.07080953492382847,5.084518294649115,-0.2153747092725391,2.734492273350128,-1.6203060227400101,-0.0751663785559833,0.4212782444714236,-0.3799720241486426,0.016061038372960468,-0.5029558126137559,0.1194493066800888,1.8309057095744095,-0.7768127525996107,0.39664578052219923,-0.029532731558603587,-0.09131243351094831,-1.1049941412378814,0.9017178549159297,-0.47080401269340655,0.04193274030105387,0.2738497982532664,-0.06306483882298508,0.0031277240290288333,1.947009362231256,0.025159119626291693,0.09561348723707397,0.10492293450118417,0.17991913108497037,0.5619014811131251,-0.5323715762397399,-0.4711487198723212,14.41336008269684,-18.699776186278086,9.550190072684472,-32.10834248363062,24.132070119445416,-1.0149427441674561,0.6710676045635466,-6.284807789743354,13.411444660377583,0.026157848170015097,1.2702591713173206,-0.8076727673694961,2.990891058726419,-2.2049402888589498,3.0274005075241917,-0.43228573136528325,1.5547356771713225,-2.959314213238713,-0.021505008565735118,0.39396565580760523,1.0199244536110967,0.9025027213363295,-0.24191389275035036,-0.5208855583482261,-0.3024701708957629,1.2314189295905607,-1.0129805980019455,0.014468885736555137,-0.6368747815129652,0.22056333454504795,0.6371788725142267,-0.24032191136771175,0.5045200065103899,-0.11137519458611678,-0.2942552455309908,-0.25558459390143895,0.01277860829625288,-0.1928571337977587,0.03645774203286489,0.5431221501466723,-0.06818869751105971,0.01187721375115558,-0.40853013220868206,0.2682694892191133,0.2420071527977541,0.04245411682199496,0.1310529094156756,0.040237006284318255,3.1016190402356756
74.67093371305054,-164.1087910524002,202.83634982060903,-192.74845182226272,163.488112977946,-128.76787160841923,0.5097219490095171,2.7543900921032787,-40.80746532242483,4.2036170762294205,-54.51382204302354,52.55866537861766,-1.3458393393652273,1.453266219948759,-8.536880801810867,30.493023810287013,-0.05578829446591982,9.81767005774418,-1.0609596683222335,2.8737596088137707,-0.9299926735646409,4.642925267583223,-11.388196162999975,3.600391347018274,-0.7760291027456105,0.4521450135832552,-1.5624231992452167,-0.4716998186181556,-0.037915608112211174,-0.7817788646897839,-0.19352200693464994,1.679558796534394,-5.261570142396977,-0.14136218776661735,-0.8776992137079844,0.29694833372626306,-1.753665720978418,-0.11280323989916852,-2.6373098604838674,0.2468978843497105,0.5269460875327212,2.486688072981323,-3.2526896055841803,0.8649579878453437,0.20628298903390174,0.054997031473202895,0.5065241929862765,-0.22005876073019692,0.11057674675485174,-0.7459988192540834,8.37085522554787,-6.437881102830602,1.7272667029578201,6.487092933883787,2.1183051683037775,-2.635686956492293,-1.2520404141809678,0.8250347558347499,3.1394403505635182,1.507674294750359,3.573059773836576,3.4043782531741726,-0.5202105325460877,-0.9258631559453434,-4.017687978137985,7.1880725346345,-0.04527879605900864,1.1505519399980813,-0.4014970701505973,0.6174460461988502,-1.6990492439259128,0.9117603119231461,2.088714563447809,2.2898542981805576,1.2457011901135218,0.029672291110753424,-0.8477664465499686,-0.8823567680825661,-0.24975073026510586,-1.1934345261279304,-0.3841812061702541,-0.5637974492956808,-0.43557185499474826,-0.05397567950430471,0.07533637003142957,-0.2893275765008809,-2.503089492631574,-0.15139096048068623,-4.160910529524273,0.82116093641811,-0.6651506966340648,3.8287245320856016,-1.7426046783960203,1.6233402016336669,0.0817264455053639,0.08415728659212363,1.1505434823864533,-0.5702946238596951,0.13215842810897982,-0.5996702402245546
113.18970776360948,-211.80212901447885,226.0217249384259,-138.1958257484439,147.60083035242678,-88.01966941484716,33.40439775012646,0.9391310675451336,-23.198021211879677,9.280146546726655,-29.2340252388517,1.673251695827986,-0.15389191184035766,27.392211772082533,-35.619103700527376,12.581170962881515,-12.711449072178027,4.68262105661907,-1.0103267274740944,5.801161011131171,-17.980764681869914,11.427764822815107,-0.34823088202944064,1.5245088840186014,-1.0758929973534634,0.5435718183849296,-0.8121968983616625,-0.10514179252648415,0.5881721465411545,0.24471441087450252,-0.8319000620942489,0.08082713057050572,0.11504113939318916,1.6200430585445815,-0.5366029273516659,-0.2446907650505068,0.04791260980821832,-0.19756833812770935,0.09969986445291212,0.6290828130965629,0.7624916631255125,0.3030385891477323,-1.77629706843544,-0.5516920800639866,0.39041275618629356,-0.5827915414613187,-0.3453096284896162,-0.26466881718132385,-0.1480900249458017,-3.4220959362419308,16.849649818526814,-33.130171444266125,23.600719893522182,-12.02095508469256,-4.815474183186495,-10.115429241504899,10.70264455700135,0.1811801722102837,-6.742001664181771,2.4727005111126346,-4.797336207704916,0.47409598376841444,0.41385630495858905,4.831338664867388,-6.006921432697027,3.989086993094361,-3.417691798515108,2.372708317329142,-1.3799397223503291,3.6039188893887513,-12.96149704932759,7.320420452446854,-0.15619809072217095,0.2845996922711933,-0.5749493003327188,0.07628825978687637,-0.12228056063591453,-0.20670720425617795,0.9187843898956203,-0.013195258673299737,-0.1856380641859161,0.11815293471354771,0.31102951408758983,1.745649717199882,-0.5632970104838222,-0.42742707218519627,0.2941098985285251,-1.5540267320582757,0.16274356012322322,-0.4551348336557979,0.969965952957125,-0.10401615792190455,-0.06444000480753154,-1.4718649944878166,0.727737965120312,-0.7030196503886543,-0.3010478334078641,-0.10319417692587596,0.43749744946987335,-2.768163594612645
